digraph Tree {
node [shape=box] ;
0 [label="X[5] <= 1.5\ngini = 0.346\nsamples = 24000\nvalue = [18656, 5344]"] ;
1 [label="X[6] <= 1.5\ngini = 0.279\nsamples = 21493\nvalue = [17887, 3606]"] ;
0 -> 1 [labeldistance=2.5, labelangle=45, headlabel="True"] ;
2 [label="X[19] <= 810.5\ngini = 0.247\nsamples = 19682\nvalue = [16842, 2840]"] ;
1 -> 2 ;
3 [label="X[11] <= 530.0\ngini = 0.338\nsamples = 5773\nvalue = [4527, 1246]"] ;
2 -> 3 ;
4 [label="X[4] <= 52.5\ngini = 0.403\nsamples = 2162\nvalue = [1557, 605]"] ;
3 -> 4 ;
5 [label="X[22] <= 73.0\ngini = 0.392\nsamples = 2010\nvalue = [1472, 538]"] ;
4 -> 5 ;
6 [label="X[0] <= 315000.0\ngini = 0.42\nsamples = 1243\nvalue = [870, 373]"] ;
5 -> 6 ;
7 [label="X[0] <= 25000.0\ngini = 0.4\nsamples = 1012\nvalue = [732, 280]"] ;
6 -> 7 ;
8 [label="X[4] <= 37.0\ngini = 0.49\nsamples = 70\nvalue = [40, 30]"] ;
7 -> 8 ;
9 [label="X[12] <= 66.0\ngini = 0.444\nsamples = 51\nvalue = [34, 17]"] ;
8 -> 9 ;
10 [label="X[5] <= -1.5\ngini = 0.497\nsamples = 28\nvalue = [15, 13]"] ;
9 -> 10 ;
11 [label="gini = 0.0\nsamples = 5\nvalue = [5, 0]"] ;
10 -> 11 ;
12 [label="X[2] <= 2.5\ngini = 0.491\nsamples = 23\nvalue = [10, 13]"] ;
10 -> 12 ;
13 [label="X[4] <= 30.5\ngini = 0.43\nsamples = 16\nvalue = [5, 11]"] ;
12 -> 13 ;
14 [label="X[20] <= 200.0\ngini = 0.337\nsamples = 14\nvalue = [3, 11]"] ;
13 -> 14 ;
15 [label="X[2] <= 1.5\ngini = 0.26\nsamples = 13\nvalue = [2, 11]"] ;
14 -> 15 ;
16 [label="X[16] <= 500.0\ngini = 0.444\nsamples = 6\nvalue = [2, 4]"] ;
15 -> 16 ;
17 [label="X[11] <= 439.0\ngini = 0.5\nsamples = 4\nvalue = [2, 2]"] ;
16 -> 17 ;
18 [label="X[1] <= 1.5\ngini = 0.444\nsamples = 3\nvalue = [2, 1]"] ;
17 -> 18 ;
19 [label="X[4] <= 26.0\ngini = 0.5\nsamples = 2\nvalue = [1, 1]"] ;
18 -> 19 ;
20 [label="gini = 0.0\nsamples = 1\nvalue = [0, 1]"] ;
19 -> 20 ;
21 [label="gini = 0.0\nsamples = 1\nvalue = [1, 0]"] ;
19 -> 21 ;
22 [label="gini = 0.0\nsamples = 1\nvalue = [1, 0]"] ;
18 -> 22 ;
23 [label="gini = 0.0\nsamples = 1\nvalue = [0, 1]"] ;
17 -> 23 ;
24 [label="gini = 0.0\nsamples = 2\nvalue = [0, 2]"] ;
16 -> 24 ;
25 [label="gini = 0.0\nsamples = 7\nvalue = [0, 7]"] ;
15 -> 25 ;
26 [label="gini = 0.0\nsamples = 1\nvalue = [1, 0]"] ;
14 -> 26 ;
27 [label="gini = 0.0\nsamples = 2\nvalue = [2, 0]"] ;
13 -> 27 ;
28 [label="X[1] <= 1.5\ngini = 0.408\nsamples = 7\nvalue = [5, 2]"] ;
12 -> 28 ;
29 [label="gini = 0.0\nsamples = 4\nvalue = [4, 0]"] ;
28 -> 29 ;
30 [label="X[0] <= 15000.0\ngini = 0.444\nsamples = 3\nvalue = [1, 2]"] ;
28 -> 30 ;
31 [label="gini = 0.0\nsamples = 1\nvalue = [1, 0]"] ;
30 -> 31 ;
32 [label="gini = 0.0\nsamples = 2\nvalue = [0, 2]"] ;
30 -> 32 ;
33 [label="X[17] <= 9342.0\ngini = 0.287\nsamples = 23\nvalue = [19, 4]"] ;
9 -> 33 ;
34 [label="X[11] <= 403.0\ngini = 0.172\nsamples = 21\nvalue = [19, 2]"] ;
33 -> 34 ;
35 [label="X[7] <= 1.0\ngini = 0.095\nsamples = 20\nvalue = [19, 1]"] ;
34 -> 35 ;
36 [label="gini = 0.0\nsamples = 17\nvalue = [17, 0]"] ;
35 -> 36 ;
37 [label="X[14] <= 683.5\ngini = 0.444\nsamples = 3\nvalue = [2, 1]"] ;
35 -> 37 ;
38 [label="gini = 0.0\nsamples = 2\nvalue = [2, 0]"] ;
37 -> 38 ;
39 [label="gini = 0.0\nsamples = 1\nvalue = [0, 1]"] ;
37 -> 39 ;
40 [label="gini = 0.0\nsamples = 1\nvalue = [0, 1]"] ;
34 -> 40 ;
41 [label="gini = 0.0\nsamples = 2\nvalue = [0, 2]"] ;
33 -> 41 ;
42 [label="X[2] <= 2.5\ngini = 0.432\nsamples = 19\nvalue = [6, 13]"] ;
8 -> 42 ;
43 [label="X[21] <= 766.0\ngini = 0.26\nsamples = 13\nvalue = [2, 11]"] ;
42 -> 43 ;
44 [label="X[11] <= 304.5\ngini = 0.153\nsamples = 12\nvalue = [1, 11]"] ;
43 -> 44 ;
45 [label="gini = 0.0\nsamples = 8\nvalue = [0, 8]"] ;
44 -> 45 ;
46 [label="X[8] <= -1.5\ngini = 0.375\nsamples = 4\nvalue = [1, 3]"] ;
44 -> 46 ;
47 [label="gini = 0.0\nsamples = 1\nvalue = [1, 0]"] ;
46 -> 47 ;
48 [label="gini = 0.0\nsamples = 3\nvalue = [0, 3]"] ;
46 -> 48 ;
49 [label="gini = 0.0\nsamples = 1\nvalue = [1, 0]"] ;
43 -> 49 ;
50 [label="X[4] <= 44.0\ngini = 0.444\nsamples = 6\nvalue = [4, 2]"] ;
42 -> 50 ;
51 [label="X[4] <= 41.5\ngini = 0.444\nsamples = 3\nvalue = [1, 2]"] ;
50 -> 51 ;
52 [label="gini = 0.0\nsamples = 1\nvalue = [1, 0]"] ;
51 -> 52 ;
53 [label="gini = 0.0\nsamples = 2\nvalue = [0, 2]"] ;
51 -> 53 ;
54 [label="gini = 0.0\nsamples = 3\nvalue = [3, 0]"] ;
50 -> 54 ;
55 [label="X[17] <= 799.5\ngini = 0.39\nsamples = 942\nvalue = [692, 250]"] ;
7 -> 55 ;
56 [label="X[14] <= 838.0\ngini = 0.405\nsamples = 809\nvalue = [581, 228]"] ;
55 -> 56 ;
57 [label="X[20] <= 7080.0\ngini = 0.399\nsamples = 786\nvalue = [570, 216]"] ;
56 -> 57 ;
58 [label="X[15] <= 1195.5\ngini = 0.404\nsamples = 770\nvalue = [554, 216]"] ;
57 -> 58 ;
59 [label="X[15] <= 198.0\ngini = 0.394\nsamples = 737\nvalue = [538, 199]"] ;
58 -> 59 ;
60 [label="X[2] <= 4.5\ngini = 0.406\nsamples = 671\nvalue = [481, 190]"] ;
59 -> 60 ;
61 [label="X[16] <= 2933.0\ngini = 0.411\nsamples = 658\nvalue = [468, 190]"] ;
60 -> 61 ;
62 [label="X[11] <= 33.0\ngini = 0.417\nsamples = 639\nvalue = [450, 189]"] ;
61 -> 62 ;
63 [label="X[12] <= 651.0\ngini = 0.429\nsamples = 561\nvalue = [386, 175]"] ;
62 -> 63 ;
64 [label="X[0] <= 195000.0\ngini = 0.425\nsamples = 552\nvalue = [383, 169]"] ;
63 -> 64 ;
65 [label="X[16] <= -1957.0\ngini = 0.393\nsamples = 309\nvalue = [226, 83]"] ;
64 -> 65 ;
66 [label="X[14] <= -2949.0\ngini = 0.444\nsamples = 6\nvalue = [2, 4]"] ;
65 -> 66 ;
67 [label="gini = 0.0\nsamples = 2\nvalue = [2, 0]"] ;
66 -> 67 ;
68 [label="gini = 0.0\nsamples = 4\nvalue = [0, 4]"] ;
66 -> 68 ;
69 [label="X[5] <= -0.5\ngini = 0.385\nsamples = 303\nvalue = [224, 79]"] ;
65 -> 69 ;
70 [label="X[1] <= 1.5\ngini = 0.294\nsamples = 95\nvalue = [78, 17]"] ;
69 -> 70 ;
71 [label="X[4] <= 44.0\ngini = 0.444\nsamples = 27\nvalue = [18, 9]"] ;
70 -> 71 ;
72 [label="X[0] <= 95000.0\ngini = 0.403\nsamples = 25\nvalue = [18, 7]"] ;
71 -> 72 ;
73 [label="gini = 0.0\nsamples = 6\nvalue = [6, 0]"] ;
72 -> 73 ;
74 [label="X[4] <= 30.5\ngini = 0.465\nsamples = 19\nvalue = [12, 7]"] ;
72 -> 74 ;
75 [label="X[0] <= 175000.0\ngini = 0.494\nsamples = 9\nvalue = [4, 5]"] ;
74 -> 75 ;
76 [label="X[0] <= 145000.0\ngini = 0.49\nsamples = 7\nvalue = [4, 3]"] ;
75 -> 76 ;
77 [label="gini = 0.0\nsamples = 1\nvalue = [0, 1]"] ;
76 -> 77 ;
78 [label="X[3] <= 1.5\ngini = 0.444\nsamples = 6\nvalue = [4, 2]"] ;
76 -> 78 ;
79 [label="gini = 0.0\nsamples = 1\nvalue = [0, 1]"] ;
78 -> 79 ;
80 [label="X[0] <= 165000.0\ngini = 0.32\nsamples = 5\nvalue = [4, 1]"] ;
78 -> 80 ;
81 [label="gini = 0.0\nsamples = 3\nvalue = [3, 0]"] ;
80 -> 81 ;
82 [label="X[4] <= 27.0\ngini = 0.5\nsamples = 2\nvalue = [1, 1]"] ;
80 -> 82 ;
83 [label="gini = 0.0\nsamples = 1\nvalue = [1, 0]"] ;
82 -> 83 ;
84 [label="gini = 0.0\nsamples = 1\nvalue = [0, 1]"] ;
82 -> 84 ;
85 [label="gini = 0.0\nsamples = 2\nvalue = [0, 2]"] ;
75 -> 85 ;
86 [label="X[4] <= 39.5\ngini = 0.32\nsamples = 10\nvalue = [8, 2]"] ;
74 -> 86 ;
87 [label="gini = 0.0\nsamples = 6\nvalue = [6, 0]"] ;
86 -> 87 ;
88 [label="X[13] <= 533.0\ngini = 0.5\nsamples = 4\nvalue = [2, 2]"] ;
86 -> 88 ;
89 [label="X[3] <= 1.5\ngini = 0.444\nsamples = 3\nvalue = [1, 2]"] ;
88 -> 89 ;
90 [label="X[4] <= 41.0\ngini = 0.5\nsamples = 2\nvalue = [1, 1]"] ;
89 -> 90 ;
91 [label="gini = 0.0\nsamples = 1\nvalue = [0, 1]"] ;
90 -> 91 ;
92 [label="gini = 0.0\nsamples = 1\nvalue = [1, 0]"] ;
90 -> 92 ;
93 [label="gini = 0.0\nsamples = 1\nvalue = [0, 1]"] ;
89 -> 93 ;
94 [label="gini = 0.0\nsamples = 1\nvalue = [1, 0]"] ;
88 -> 94 ;
95 [label="gini = 0.0\nsamples = 2\nvalue = [0, 2]"] ;
71 -> 95 ;
96 [label="X[16] <= 1827.5\ngini = 0.208\nsamples = 68\nvalue = [60, 8]"] ;
70 -> 96 ;
97 [label="X[0] <= 95000.0\ngini = 0.187\nsamples = 67\nvalue = [60, 7]"] ;
96 -> 97 ;
98 [label="gini = 0.0\nsamples = 20\nvalue = [20, 0]"] ;
97 -> 98 ;
99 [label="X[2] <= 1.5\ngini = 0.254\nsamples = 47\nvalue = [40, 7]"] ;
97 -> 99 ;
100 [label="X[4] <= 45.0\ngini = 0.363\nsamples = 21\nvalue = [16, 5]"] ;
99 -> 100 ;
101 [label="X[4] <= 35.5\ngini = 0.32\nsamples = 20\nvalue = [16, 4]"] ;
100 -> 101 ;
102 [label="X[4] <= 32.5\ngini = 0.391\nsamples = 15\nvalue = [11, 4]"] ;
101 -> 102 ;
103 [label="X[18] <= 216.0\ngini = 0.337\nsamples = 14\nvalue = [11, 3]"] ;
102 -> 103 ;
104 [label="X[4] <= 26.0\ngini = 0.397\nsamples = 11\nvalue = [8, 3]"] ;
103 -> 104 ;
105 [label="gini = 0.0\nsamples = 2\nvalue = [2, 0]"] ;
104 -> 105 ;
106 [label="X[0] <= 110000.0\ngini = 0.444\nsamples = 9\nvalue = [6, 3]"] ;
104 -> 106 ;
107 [label="gini = 0.0\nsamples = 1\nvalue = [0, 1]"] ;
106 -> 107 ;
108 [label="X[4] <= 30.0\ngini = 0.375\nsamples = 8\nvalue = [6, 2]"] ;
106 -> 108 ;
109 [label="X[0] <= 135000.0\ngini = 0.444\nsamples = 6\nvalue = [4, 2]"] ;
108 -> 109 ;
110 [label="gini = 0.0\nsamples = 1\nvalue = [1, 0]"] ;
109 -> 110 ;
111 [label="X[0] <= 165000.0\ngini = 0.48\nsamples = 5\nvalue = [3, 2]"] ;
109 -> 111 ;
112 [label="X[4] <= 28.0\ngini = 0.5\nsamples = 2\nvalue = [1, 1]"] ;
111 -> 112 ;
113 [label="gini = 0.0\nsamples = 1\nvalue = [0, 1]"] ;
112 -> 113 ;
114 [label="gini = 0.0\nsamples = 1\nvalue = [1, 0]"] ;
112 -> 114 ;
115 [label="X[4] <= 28.0\ngini = 0.444\nsamples = 3\nvalue = [2, 1]"] ;
111 -> 115 ;
116 [label="gini = 0.0\nsamples = 1\nvalue = [1, 0]"] ;
115 -> 116 ;
117 [label="gini = 0.5\nsamples = 2\nvalue = [1, 1]"] ;
115 -> 117 ;
118 [label="gini = 0.0\nsamples = 2\nvalue = [2, 0]"] ;
108 -> 118 ;
119 [label="gini = 0.0\nsamples = 3\nvalue = [3, 0]"] ;
103 -> 119 ;
120 [label="gini = 0.0\nsamples = 1\nvalue = [0, 1]"] ;
102 -> 120 ;
121 [label="gini = 0.0\nsamples = 5\nvalue = [5, 0]"] ;
101 -> 121 ;
122 [label="gini = 0.0\nsamples = 1\nvalue = [0, 1]"] ;
100 -> 122 ;
123 [label="X[0] <= 135000.0\ngini = 0.142\nsamples = 26\nvalue = [24, 2]"] ;
99 -> 123 ;
124 [label="X[0] <= 110000.0\ngini = 0.375\nsamples = 8\nvalue = [6, 2]"] ;
123 -> 124 ;
125 [label="gini = 0.0\nsamples = 3\nvalue = [3, 0]"] ;
124 -> 125 ;
126 [label="X[3] <= 1.5\ngini = 0.48\nsamples = 5\nvalue = [3, 2]"] ;
124 -> 126 ;
127 [label="X[4] <= 46.5\ngini = 0.444\nsamples = 3\nvalue = [1, 2]"] ;
126 -> 127 ;
128 [label="gini = 0.0\nsamples = 2\nvalue = [0, 2]"] ;
127 -> 128 ;
129 [label="gini = 0.0\nsamples = 1\nvalue = [1, 0]"] ;
127 -> 129 ;
130 [label="gini = 0.0\nsamples = 2\nvalue = [2, 0]"] ;
126 -> 130 ;
131 [label="gini = 0.0\nsamples = 18\nvalue = [18, 0]"] ;
123 -> 131 ;
132 [label="gini = 0.0\nsamples = 1\nvalue = [0, 1]"] ;
96 -> 132 ;
133 [label="X[6] <= -1.5\ngini = 0.418\nsamples = 208\nvalue = [146, 62]"] ;
69 -> 133 ;
134 [label="X[0] <= 35000.0\ngini = 0.429\nsamples = 199\nvalue = [137, 62]"] ;
133 -> 134 ;
135 [label="X[4] <= 35.5\ngini = 0.444\nsamples = 6\nvalue = [2, 4]"] ;
134 -> 135 ;
136 [label="gini = 0.0\nsamples = 4\nvalue = [0, 4]"] ;
135 -> 136 ;
137 [label="gini = 0.0\nsamples = 2\nvalue = [2, 0]"] ;
135 -> 137 ;
138 [label="X[19] <= 38.0\ngini = 0.42\nsamples = 193\nvalue = [135, 58]"] ;
134 -> 138 ;
139 [label="X[12] <= -235.0\ngini = 0.413\nsamples = 189\nvalue = [134, 55]"] ;
138 -> 139 ;
140 [label="gini = 0.0\nsamples = 7\nvalue = [7, 0]"] ;
139 -> 140 ;
141 [label="X[4] <= 27.5\ngini = 0.422\nsamples = 182\nvalue = [127, 55]"] ;
139 -> 141 ;
142 [label="X[11] <= -139.0\ngini = 0.482\nsamples = 42\nvalue = [25, 17]"] ;
141 -> 142 ;
143 [label="gini = 0.0\nsamples = 1\nvalue = [0, 1]"] ;
142 -> 143 ;
144 [label="X[0] <= 125000.0\ngini = 0.476\nsamples = 41\nvalue = [25, 16]"] ;
142 -> 144 ;
145 [label="X[0] <= 105000.0\ngini = 0.497\nsamples = 28\nvalue = [15, 13]"] ;
144 -> 145 ;
146 [label="X[16] <= 275.0\ngini = 0.469\nsamples = 24\nvalue = [15, 9]"] ;
145 -> 146 ;
147 [label="X[4] <= 24.5\ngini = 0.454\nsamples = 23\nvalue = [15, 8]"] ;
146 -> 147 ;
148 [label="X[14] <= -39.0\ngini = 0.5\nsamples = 10\nvalue = [5, 5]"] ;
147 -> 148 ;
149 [label="gini = 0.0\nsamples = 1\nvalue = [1, 0]"] ;
148 -> 149 ;
150 [label="X[0] <= 65000.0\ngini = 0.494\nsamples = 9\nvalue = [4, 5]"] ;
148 -> 150 ;
151 [label="X[1] <= 1.5\ngini = 0.49\nsamples = 7\nvalue = [4, 3]"] ;
150 -> 151 ;
152 [label="X[2] <= 2.5\ngini = 0.444\nsamples = 3\nvalue = [1, 2]"] ;
151 -> 152 ;
153 [label="gini = 0.0\nsamples = 2\nvalue = [0, 2]"] ;
152 -> 153 ;
154 [label="gini = 0.0\nsamples = 1\nvalue = [1, 0]"] ;
152 -> 154 ;
155 [label="X[4] <= 22.5\ngini = 0.375\nsamples = 4\nvalue = [3, 1]"] ;
151 -> 155 ;
156 [label="gini = 0.5\nsamples = 2\nvalue = [1, 1]"] ;
155 -> 156 ;
157 [label="gini = 0.0\nsamples = 2\nvalue = [2, 0]"] ;
155 -> 157 ;
158 [label="gini = 0.0\nsamples = 2\nvalue = [0, 2]"] ;
150 -> 158 ;
159 [label="X[0] <= 65000.0\ngini = 0.355\nsamples = 13\nvalue = [10, 3]"] ;
147 -> 159 ;
160 [label="gini = 0.0\nsamples = 5\nvalue = [5, 0]"] ;
159 -> 160 ;
161 [label="X[2] <= 2.5\ngini = 0.469\nsamples = 8\nvalue = [5, 3]"] ;
159 -> 161 ;
162 [label="X[2] <= 1.5\ngini = 0.32\nsamples = 5\nvalue = [4, 1]"] ;
161 -> 162 ;
163 [label="X[0] <= 85000.0\ngini = 0.5\nsamples = 2\nvalue = [1, 1]"] ;
162 -> 163 ;
164 [label="gini = 0.0\nsamples = 1\nvalue = [0, 1]"] ;
163 -> 164 ;
165 [label="gini = 0.0\nsamples = 1\nvalue = [1, 0]"] ;
163 -> 165 ;
166 [label="gini = 0.0\nsamples = 3\nvalue = [3, 0]"] ;
162 -> 166 ;
167 [label="X[1] <= 1.5\ngini = 0.444\nsamples = 3\nvalue = [1, 2]"] ;
161 -> 167 ;
168 [label="gini = 0.5\nsamples = 2\nvalue = [1, 1]"] ;
167 -> 168 ;
169 [label="gini = 0.0\nsamples = 1\nvalue = [0, 1]"] ;
167 -> 169 ;
170 [label="gini = 0.0\nsamples = 1\nvalue = [0, 1]"] ;
146 -> 170 ;
171 [label="gini = 0.0\nsamples = 4\nvalue = [0, 4]"] ;
145 -> 171 ;
172 [label="X[0] <= 135000.0\ngini = 0.355\nsamples = 13\nvalue = [10, 3]"] ;
144 -> 172 ;
173 [label="X[4] <= 26.5\ngini = 0.198\nsamples = 9\nvalue = [8, 1]"] ;
172 -> 173 ;
174 [label="gini = 0.0\nsamples = 5\nvalue = [5, 0]"] ;
173 -> 174 ;
175 [label="X[2] <= 1.5\ngini = 0.375\nsamples = 4\nvalue = [3, 1]"] ;
173 -> 175 ;
176 [label="gini = 0.0\nsamples = 2\nvalue = [2, 0]"] ;
175 -> 176 ;
177 [label="gini = 0.5\nsamples = 2\nvalue = [1, 1]"] ;
175 -> 177 ;
178 [label="X[0] <= 165000.0\ngini = 0.5\nsamples = 4\nvalue = [2, 2]"] ;
172 -> 178 ;
179 [label="gini = 0.0\nsamples = 2\nvalue = [0, 2]"] ;
178 -> 179 ;
180 [label="gini = 0.0\nsamples = 2\nvalue = [2, 0]"] ;
178 -> 180 ;
181 [label="X[21] <= 672.5\ngini = 0.396\nsamples = 140\nvalue = [102, 38]"] ;
141 -> 181 ;
182 [label="X[16] <= 140.5\ngini = 0.404\nsamples = 135\nvalue = [97, 38]"] ;
181 -> 182 ;
183 [label="X[1] <= 1.5\ngini = 0.392\nsamples = 131\nvalue = [96, 35]"] ;
182 -> 183 ;
184 [label="X[4] <= 28.5\ngini = 0.454\nsamples = 43\nvalue = [28, 15]"] ;
183 -> 184 ;
185 [label="gini = 0.0\nsamples = 2\nvalue = [0, 2]"] ;
184 -> 185 ;
186 [label="X[4] <= 35.5\ngini = 0.433\nsamples = 41\nvalue = [28, 13]"] ;
184 -> 186 ;
187 [label="X[3] <= 1.5\ngini = 0.34\nsamples = 23\nvalue = [18, 5]"] ;
186 -> 187 ;
188 [label="gini = 0.0\nsamples = 7\nvalue = [7, 0]"] ;
187 -> 188 ;
189 [label="X[0] <= 125000.0\ngini = 0.43\nsamples = 16\nvalue = [11, 5]"] ;
187 -> 189 ;
190 [label="X[0] <= 70000.0\ngini = 0.5\nsamples = 8\nvalue = [4, 4]"] ;
189 -> 190 ;
191 [label="gini = 0.0\nsamples = 3\nvalue = [3, 0]"] ;
190 -> 191 ;
192 [label="X[13] <= 995.0\ngini = 0.32\nsamples = 5\nvalue = [1, 4]"] ;
190 -> 192 ;
193 [label="gini = 0.0\nsamples = 4\nvalue = [0, 4]"] ;
192 -> 193 ;
194 [label="gini = 0.0\nsamples = 1\nvalue = [1, 0]"] ;
192 -> 194 ;
195 [label="X[0] <= 150000.0\ngini = 0.219\nsamples = 8\nvalue = [7, 1]"] ;
189 -> 195 ;
196 [label="gini = 0.0\nsamples = 4\nvalue = [4, 0]"] ;
195 -> 196 ;
197 [label="X[0] <= 165000.0\ngini = 0.375\nsamples = 4\nvalue = [3, 1]"] ;
195 -> 197 ;
198 [label="gini = 0.0\nsamples = 1\nvalue = [0, 1]"] ;
197 -> 198 ;
199 [label="gini = 0.0\nsamples = 3\nvalue = [3, 0]"] ;
197 -> 199 ;
200 [label="X[4] <= 46.0\ngini = 0.494\nsamples = 18\nvalue = [10, 8]"] ;
186 -> 200 ;
201 [label="X[3] <= 1.5\ngini = 0.49\nsamples = 14\nvalue = [6, 8]"] ;
200 -> 201 ;
202 [label="X[0] <= 175000.0\ngini = 0.42\nsamples = 10\nvalue = [3, 7]"] ;
201 -> 202 ;
203 [label="X[4] <= 38.5\ngini = 0.245\nsamples = 7\nvalue = [1, 6]"] ;
202 -> 203 ;
204 [label="X[4] <= 37.0\ngini = 0.444\nsamples = 3\nvalue = [1, 2]"] ;
203 -> 204 ;
205 [label="gini = 0.0\nsamples = 1\nvalue = [0, 1]"] ;
204 -> 205 ;
206 [label="X[2] <= 2.0\ngini = 0.5\nsamples = 2\nvalue = [1, 1]"] ;
204 -> 206 ;
207 [label="gini = 0.0\nsamples = 1\nvalue = [0, 1]"] ;
206 -> 207 ;
208 [label="gini = 0.0\nsamples = 1\nvalue = [1, 0]"] ;
206 -> 208 ;
209 [label="gini = 0.0\nsamples = 4\nvalue = [0, 4]"] ;
203 -> 209 ;
210 [label="X[4] <= 40.5\ngini = 0.444\nsamples = 3\nvalue = [2, 1]"] ;
202 -> 210 ;
211 [label="gini = 0.0\nsamples = 1\nvalue = [1, 0]"] ;
210 -> 211 ;
212 [label="gini = 0.5\nsamples = 2\nvalue = [1, 1]"] ;
210 -> 212 ;
213 [label="X[4] <= 40.0\ngini = 0.375\nsamples = 4\nvalue = [3, 1]"] ;
201 -> 213 ;
214 [label="X[0] <= 90000.0\ngini = 0.444\nsamples = 3\nvalue = [2, 1]"] ;
213 -> 214 ;
215 [label="gini = 0.5\nsamples = 2\nvalue = [1, 1]"] ;
214 -> 215 ;
216 [label="gini = 0.0\nsamples = 1\nvalue = [1, 0]"] ;
214 -> 216 ;
217 [label="gini = 0.0\nsamples = 1\nvalue = [1, 0]"] ;
213 -> 217 ;
218 [label="gini = 0.0\nsamples = 4\nvalue = [4, 0]"] ;
200 -> 218 ;
219 [label="X[18] <= 2412.0\ngini = 0.351\nsamples = 88\nvalue = [68, 20]"] ;
183 -> 219 ;
220 [label="X[0] <= 145000.0\ngini = 0.341\nsamples = 87\nvalue = [68, 19]"] ;
219 -> 220 ;
221 [label="X[4] <= 28.5\ngini = 0.258\nsamples = 46\nvalue = [39, 7]"] ;
220 -> 221 ;
222 [label="X[0] <= 110000.0\ngini = 0.48\nsamples = 5\nvalue = [3, 2]"] ;
221 -> 222 ;
223 [label="X[0] <= 65000.0\ngini = 0.444\nsamples = 3\nvalue = [1, 2]"] ;
222 -> 223 ;
224 [label="gini = 0.0\nsamples = 1\nvalue = [1, 0]"] ;
223 -> 224 ;
225 [label="gini = 0.0\nsamples = 2\nvalue = [0, 2]"] ;
223 -> 225 ;
226 [label="gini = 0.0\nsamples = 2\nvalue = [2, 0]"] ;
222 -> 226 ;
227 [label="X[0] <= 70000.0\ngini = 0.214\nsamples = 41\nvalue = [36, 5]"] ;
221 -> 227 ;
228 [label="X[4] <= 48.0\ngini = 0.444\nsamples = 9\nvalue = [6, 3]"] ;
227 -> 228 ;
229 [label="X[4] <= 33.5\ngini = 0.245\nsamples = 7\nvalue = [6, 1]"] ;
228 -> 229 ;
230 [label="X[3] <= 1.5\ngini = 0.5\nsamples = 2\nvalue = [1, 1]"] ;
229 -> 230 ;
231 [label="gini = 0.0\nsamples = 1\nvalue = [0, 1]"] ;
230 -> 231 ;
232 [label="gini = 0.0\nsamples = 1\nvalue = [1, 0]"] ;
230 -> 232 ;
233 [label="gini = 0.0\nsamples = 5\nvalue = [5, 0]"] ;
229 -> 233 ;
234 [label="gini = 0.0\nsamples = 2\nvalue = [0, 2]"] ;
228 -> 234 ;
235 [label="X[3] <= 1.5\ngini = 0.117\nsamples = 32\nvalue = [30, 2]"] ;
227 -> 235 ;
236 [label="gini = 0.0\nsamples = 19\nvalue = [19, 0]"] ;
235 -> 236 ;
237 [label="X[0] <= 105000.0\ngini = 0.26\nsamples = 13\nvalue = [11, 2]"] ;
235 -> 237 ;
238 [label="gini = 0.0\nsamples = 8\nvalue = [8, 0]"] ;
237 -> 238 ;
239 [label="X[2] <= 2.5\ngini = 0.48\nsamples = 5\nvalue = [3, 2]"] ;
237 -> 239 ;
240 [label="X[0] <= 115000.0\ngini = 0.375\nsamples = 4\nvalue = [3, 1]"] ;
239 -> 240 ;
241 [label="gini = 0.0\nsamples = 1\nvalue = [0, 1]"] ;
240 -> 241 ;
242 [label="gini = 0.0\nsamples = 3\nvalue = [3, 0]"] ;
240 -> 242 ;
243 [label="gini = 0.0\nsamples = 1\nvalue = [0, 1]"] ;
239 -> 243 ;
244 [label="X[4] <= 29.5\ngini = 0.414\nsamples = 41\nvalue = [29, 12]"] ;
220 -> 244 ;
245 [label="gini = 0.0\nsamples = 8\nvalue = [8, 0]"] ;
244 -> 245 ;
246 [label="X[4] <= 39.5\ngini = 0.463\nsamples = 33\nvalue = [21, 12]"] ;
244 -> 246 ;
247 [label="X[4] <= 36.5\ngini = 0.499\nsamples = 21\nvalue = [11, 10]"] ;
246 -> 247 ;
248 [label="X[2] <= 1.5\ngini = 0.459\nsamples = 14\nvalue = [9, 5]"] ;
247 -> 248 ;
249 [label="X[0] <= 175000.0\ngini = 0.5\nsamples = 10\nvalue = [5, 5]"] ;
248 -> 249 ;
250 [label="X[18] <= 275.0\ngini = 0.469\nsamples = 8\nvalue = [5, 3]"] ;
249 -> 250 ;
251 [label="X[4] <= 31.5\ngini = 0.408\nsamples = 7\nvalue = [5, 2]"] ;
250 -> 251 ;
252 [label="gini = 0.0\nsamples = 3\nvalue = [3, 0]"] ;
251 -> 252 ;
253 [label="X[4] <= 32.5\ngini = 0.5\nsamples = 4\nvalue = [2, 2]"] ;
251 -> 253 ;
254 [label="gini = 0.0\nsamples = 1\nvalue = [0, 1]"] ;
253 -> 254 ;
255 [label="X[0] <= 155000.0\ngini = 0.444\nsamples = 3\nvalue = [2, 1]"] ;
253 -> 255 ;
256 [label="X[4] <= 34.0\ngini = 0.5\nsamples = 2\nvalue = [1, 1]"] ;
255 -> 256 ;
257 [label="gini = 0.0\nsamples = 1\nvalue = [0, 1]"] ;
256 -> 257 ;
258 [label="gini = 0.0\nsamples = 1\nvalue = [1, 0]"] ;
256 -> 258 ;
259 [label="gini = 0.0\nsamples = 1\nvalue = [1, 0]"] ;
255 -> 259 ;
260 [label="gini = 0.0\nsamples = 1\nvalue = [0, 1]"] ;
250 -> 260 ;
261 [label="gini = 0.0\nsamples = 2\nvalue = [0, 2]"] ;
249 -> 261 ;
262 [label="gini = 0.0\nsamples = 4\nvalue = [4, 0]"] ;
248 -> 262 ;
263 [label="X[2] <= 3.0\ngini = 0.408\nsamples = 7\nvalue = [2, 5]"] ;
247 -> 263 ;
264 [label="X[4] <= 38.5\ngini = 0.278\nsamples = 6\nvalue = [1, 5]"] ;
263 -> 264 ;
265 [label="X[0] <= 165000.0\ngini = 0.444\nsamples = 3\nvalue = [1, 2]"] ;
264 -> 265 ;
266 [label="gini = 0.0\nsamples = 2\nvalue = [0, 2]"] ;
265 -> 266 ;
267 [label="gini = 0.0\nsamples = 1\nvalue = [1, 0]"] ;
265 -> 267 ;
268 [label="gini = 0.0\nsamples = 3\nvalue = [0, 3]"] ;
264 -> 268 ;
269 [label="gini = 0.0\nsamples = 1\nvalue = [1, 0]"] ;
263 -> 269 ;
270 [label="X[4] <= 45.0\ngini = 0.278\nsamples = 12\nvalue = [10, 2]"] ;
246 -> 270 ;
271 [label="gini = 0.0\nsamples = 6\nvalue = [6, 0]"] ;
270 -> 271 ;
272 [label="X[2] <= 1.5\ngini = 0.444\nsamples = 6\nvalue = [4, 2]"] ;
270 -> 272 ;
273 [label="gini = 0.0\nsamples = 3\nvalue = [3, 0]"] ;
272 -> 273 ;
274 [label="X[0] <= 170000.0\ngini = 0.444\nsamples = 3\nvalue = [1, 2]"] ;
272 -> 274 ;
275 [label="gini = 0.0\nsamples = 2\nvalue = [0, 2]"] ;
274 -> 275 ;
276 [label="gini = 0.0\nsamples = 1\nvalue = [1, 0]"] ;
274 -> 276 ;
277 [label="gini = 0.0\nsamples = 1\nvalue = [0, 1]"] ;
219 -> 277 ;
278 [label="X[0] <= 125000.0\ngini = 0.375\nsamples = 4\nvalue = [1, 3]"] ;
182 -> 278 ;
279 [label="gini = 0.0\nsamples = 2\nvalue = [0, 2]"] ;
278 -> 279 ;
280 [label="X[0] <= 155000.0\ngini = 0.5\nsamples = 2\nvalue = [1, 1]"] ;
278 -> 280 ;
281 [label="gini = 0.0\nsamples = 1\nvalue = [1, 0]"] ;
280 -> 281 ;
282 [label="gini = 0.0\nsamples = 1\nvalue = [0, 1]"] ;
280 -> 282 ;
283 [label="gini = 0.0\nsamples = 5\nvalue = [5, 0]"] ;
181 -> 283 ;
284 [label="X[1] <= 1.5\ngini = 0.375\nsamples = 4\nvalue = [1, 3]"] ;
138 -> 284 ;
285 [label="gini = 0.0\nsamples = 1\nvalue = [1, 0]"] ;
284 -> 285 ;
286 [label="gini = 0.0\nsamples = 3\nvalue = [0, 3]"] ;
284 -> 286 ;
287 [label="gini = 0.0\nsamples = 9\nvalue = [9, 0]"] ;
133 -> 287 ;
288 [label="X[4] <= 28.5\ngini = 0.457\nsamples = 243\nvalue = [157, 86]"] ;
64 -> 288 ;
289 [label="X[0] <= 260000.0\ngini = 0.302\nsamples = 27\nvalue = [22, 5]"] ;
288 -> 289 ;
290 [label="X[8] <= -1.5\ngini = 0.388\nsamples = 19\nvalue = [14, 5]"] ;
289 -> 290 ;
291 [label="X[1] <= 1.5\ngini = 0.43\nsamples = 16\nvalue = [11, 5]"] ;
290 -> 291 ;
292 [label="gini = 0.0\nsamples = 3\nvalue = [3, 0]"] ;
291 -> 292 ;
293 [label="X[3] <= 1.5\ngini = 0.473\nsamples = 13\nvalue = [8, 5]"] ;
291 -> 293 ;
294 [label="gini = 0.0\nsamples = 3\nvalue = [3, 0]"] ;
293 -> 294 ;
295 [label="X[2] <= 1.5\ngini = 0.5\nsamples = 10\nvalue = [5, 5]"] ;
293 -> 295 ;
296 [label="gini = 0.0\nsamples = 3\nvalue = [0, 3]"] ;
295 -> 296 ;
297 [label="X[0] <= 215000.0\ngini = 0.408\nsamples = 7\nvalue = [5, 2]"] ;
295 -> 297 ;
298 [label="gini = 0.0\nsamples = 4\nvalue = [4, 0]"] ;
297 -> 298 ;
299 [label="X[4] <= 26.0\ngini = 0.444\nsamples = 3\nvalue = [1, 2]"] ;
297 -> 299 ;
300 [label="gini = 0.0\nsamples = 1\nvalue = [1, 0]"] ;
299 -> 300 ;
301 [label="gini = 0.0\nsamples = 2\nvalue = [0, 2]"] ;
299 -> 301 ;
302 [label="gini = 0.0\nsamples = 3\nvalue = [3, 0]"] ;
290 -> 302 ;
303 [label="gini = 0.0\nsamples = 8\nvalue = [8, 0]"] ;
289 -> 303 ;
304 [label="X[4] <= 29.5\ngini = 0.469\nsamples = 216\nvalue = [135, 81]"] ;
288 -> 304 ;
305 [label="X[1] <= 1.5\ngini = 0.426\nsamples = 13\nvalue = [4, 9]"] ;
304 -> 305 ;
306 [label="gini = 0.0\nsamples = 6\nvalue = [0, 6]"] ;
305 -> 306 ;
307 [label="X[0] <= 220000.0\ngini = 0.49\nsamples = 7\nvalue = [4, 3]"] ;
305 -> 307 ;
308 [label="gini = 0.0\nsamples = 2\nvalue = [0, 2]"] ;
307 -> 308 ;
309 [label="X[0] <= 270000.0\ngini = 0.32\nsamples = 5\nvalue = [4, 1]"] ;
307 -> 309 ;
310 [label="gini = 0.0\nsamples = 3\nvalue = [3, 0]"] ;
309 -> 310 ;
311 [label="X[0] <= 295000.0\ngini = 0.5\nsamples = 2\nvalue = [1, 1]"] ;
309 -> 311 ;
312 [label="gini = 0.0\nsamples = 1\nvalue = [0, 1]"] ;
311 -> 312 ;
313 [label="gini = 0.0\nsamples = 1\nvalue = [1, 0]"] ;
311 -> 313 ;
314 [label="X[16] <= 2558.5\ngini = 0.458\nsamples = 203\nvalue = [131, 72]"] ;
304 -> 314 ;
315 [label="X[2] <= 2.5\ngini = 0.454\nsamples = 201\nvalue = [131, 70]"] ;
314 -> 315 ;
316 [label="X[0] <= 265000.0\ngini = 0.442\nsamples = 182\nvalue = [122, 60]"] ;
315 -> 316 ;
317 [label="X[0] <= 215000.0\ngini = 0.465\nsamples = 139\nvalue = [88, 51]"] ;
316 -> 317 ;
318 [label="X[4] <= 43.5\ngini = 0.406\nsamples = 67\nvalue = [48, 19]"] ;
317 -> 318 ;
319 [label="X[4] <= 41.5\ngini = 0.44\nsamples = 55\nvalue = [37, 18]"] ;
318 -> 319 ;
320 [label="X[4] <= 36.5\ngini = 0.395\nsamples = 48\nvalue = [35, 13]"] ;
319 -> 320 ;
321 [label="X[4] <= 35.5\ngini = 0.458\nsamples = 31\nvalue = [20, 11]"] ;
320 -> 321 ;
322 [label="X[6] <= -1.5\ngini = 0.393\nsamples = 26\nvalue = [19, 7]"] ;
321 -> 322 ;
323 [label="X[2] <= 1.5\ngini = 0.365\nsamples = 25\nvalue = [19, 6]"] ;
322 -> 323 ;
324 [label="X[4] <= 30.5\ngini = 0.42\nsamples = 20\nvalue = [14, 6]"] ;
323 -> 324 ;
325 [label="X[5] <= -0.5\ngini = 0.5\nsamples = 4\nvalue = [2, 2]"] ;
324 -> 325 ;
326 [label="gini = 0.0\nsamples = 2\nvalue = [2, 0]"] ;
325 -> 326 ;
327 [label="gini = 0.0\nsamples = 2\nvalue = [0, 2]"] ;
325 -> 327 ;
328 [label="X[0] <= 205000.0\ngini = 0.375\nsamples = 16\nvalue = [12, 4]"] ;
324 -> 328 ;
329 [label="X[3] <= 1.5\ngini = 0.48\nsamples = 10\nvalue = [6, 4]"] ;
328 -> 329 ;
330 [label="X[4] <= 33.5\ngini = 0.32\nsamples = 5\nvalue = [4, 1]"] ;
329 -> 330 ;
331 [label="gini = 0.0\nsamples = 2\nvalue = [2, 0]"] ;
330 -> 331 ;
332 [label="X[5] <= -0.5\ngini = 0.444\nsamples = 3\nvalue = [2, 1]"] ;
330 -> 332 ;
333 [label="gini = 0.0\nsamples = 1\nvalue = [1, 0]"] ;
332 -> 333 ;
334 [label="gini = 0.5\nsamples = 2\nvalue = [1, 1]"] ;
332 -> 334 ;
335 [label="X[11] <= -409.0\ngini = 0.48\nsamples = 5\nvalue = [2, 3]"] ;
329 -> 335 ;
336 [label="gini = 0.0\nsamples = 1\nvalue = [1, 0]"] ;
335 -> 336 ;
337 [label="X[4] <= 32.0\ngini = 0.375\nsamples = 4\nvalue = [1, 3]"] ;
335 -> 337 ;
338 [label="X[5] <= -0.5\ngini = 0.5\nsamples = 2\nvalue = [1, 1]"] ;
337 -> 338 ;
339 [label="gini = 0.0\nsamples = 1\nvalue = [1, 0]"] ;
338 -> 339 ;
340 [label="gini = 0.0\nsamples = 1\nvalue = [0, 1]"] ;
338 -> 340 ;
341 [label="gini = 0.0\nsamples = 2\nvalue = [0, 2]"] ;
337 -> 341 ;
342 [label="gini = 0.0\nsamples = 6\nvalue = [6, 0]"] ;
328 -> 342 ;
343 [label="gini = 0.0\nsamples = 5\nvalue = [5, 0]"] ;
323 -> 343 ;
344 [label="gini = 0.0\nsamples = 1\nvalue = [0, 1]"] ;
322 -> 344 ;
345 [label="X[5] <= -0.5\ngini = 0.32\nsamples = 5\nvalue = [1, 4]"] ;
321 -> 345 ;
346 [label="gini = 0.0\nsamples = 2\nvalue = [0, 2]"] ;
345 -> 346 ;
347 [label="X[2] <= 1.5\ngini = 0.444\nsamples = 3\nvalue = [1, 2]"] ;
345 -> 347 ;
348 [label="X[0] <= 205000.0\ngini = 0.5\nsamples = 2\nvalue = [1, 1]"] ;
347 -> 348 ;
349 [label="gini = 0.0\nsamples = 1\nvalue = [1, 0]"] ;
348 -> 349 ;
350 [label="gini = 0.0\nsamples = 1\nvalue = [0, 1]"] ;
348 -> 350 ;
351 [label="gini = 0.0\nsamples = 1\nvalue = [0, 1]"] ;
347 -> 351 ;
352 [label="X[3] <= 1.5\ngini = 0.208\nsamples = 17\nvalue = [15, 2]"] ;
320 -> 352 ;
353 [label="X[4] <= 39.5\ngini = 0.346\nsamples = 9\nvalue = [7, 2]"] ;
352 -> 353 ;
354 [label="X[8] <= -1.5\ngini = 0.48\nsamples = 5\nvalue = [3, 2]"] ;
353 -> 354 ;
355 [label="X[4] <= 38.0\ngini = 0.444\nsamples = 3\nvalue = [1, 2]"] ;
354 -> 355 ;
356 [label="gini = 0.5\nsamples = 2\nvalue = [1, 1]"] ;
355 -> 356 ;
357 [label="gini = 0.0\nsamples = 1\nvalue = [0, 1]"] ;
355 -> 357 ;
358 [label="gini = 0.0\nsamples = 2\nvalue = [2, 0]"] ;
354 -> 358 ;
359 [label="gini = 0.0\nsamples = 4\nvalue = [4, 0]"] ;
353 -> 359 ;
360 [label="gini = 0.0\nsamples = 8\nvalue = [8, 0]"] ;
352 -> 360 ;
361 [label="X[1] <= 1.5\ngini = 0.408\nsamples = 7\nvalue = [2, 5]"] ;
319 -> 361 ;
362 [label="gini = 0.0\nsamples = 1\nvalue = [1, 0]"] ;
361 -> 362 ;
363 [label="X[5] <= -0.5\ngini = 0.278\nsamples = 6\nvalue = [1, 5]"] ;
361 -> 363 ;
364 [label="gini = 0.0\nsamples = 2\nvalue = [0, 2]"] ;
363 -> 364 ;
365 [label="X[4] <= 42.5\ngini = 0.375\nsamples = 4\nvalue = [1, 3]"] ;
363 -> 365 ;
366 [label="gini = 0.0\nsamples = 1\nvalue = [0, 1]"] ;
365 -> 366 ;
367 [label="X[2] <= 1.5\ngini = 0.444\nsamples = 3\nvalue = [1, 2]"] ;
365 -> 367 ;
368 [label="gini = 0.5\nsamples = 2\nvalue = [1, 1]"] ;
367 -> 368 ;
369 [label="gini = 0.0\nsamples = 1\nvalue = [0, 1]"] ;
367 -> 369 ;
370 [label="X[4] <= 48.5\ngini = 0.153\nsamples = 12\nvalue = [11, 1]"] ;
318 -> 370 ;
371 [label="gini = 0.0\nsamples = 8\nvalue = [8, 0]"] ;
370 -> 371 ;
372 [label="X[4] <= 49.5\ngini = 0.375\nsamples = 4\nvalue = [3, 1]"] ;
370 -> 372 ;
373 [label="gini = 0.444\nsamples = 3\nvalue = [2, 1]"] ;
372 -> 373 ;
374 [label="gini = 0.0\nsamples = 1\nvalue = [1, 0]"] ;
372 -> 374 ;
375 [label="X[4] <= 34.5\ngini = 0.494\nsamples = 72\nvalue = [40, 32]"] ;
317 -> 375 ;
376 [label="X[2] <= 1.5\ngini = 0.346\nsamples = 18\nvalue = [14, 4]"] ;
375 -> 376 ;
377 [label="X[3] <= 1.5\ngini = 0.48\nsamples = 10\nvalue = [6, 4]"] ;
376 -> 377 ;
378 [label="gini = 0.0\nsamples = 2\nvalue = [0, 2]"] ;
377 -> 378 ;
379 [label="X[0] <= 225000.0\ngini = 0.375\nsamples = 8\nvalue = [6, 2]"] ;
377 -> 379 ;
380 [label="gini = 0.0\nsamples = 1\nvalue = [0, 1]"] ;
379 -> 380 ;
381 [label="X[1] <= 1.5\ngini = 0.245\nsamples = 7\nvalue = [6, 1]"] ;
379 -> 381 ;
382 [label="X[5] <= -0.5\ngini = 0.444\nsamples = 3\nvalue = [2, 1]"] ;
381 -> 382 ;
383 [label="gini = 0.0\nsamples = 2\nvalue = [2, 0]"] ;
382 -> 383 ;
384 [label="gini = 0.0\nsamples = 1\nvalue = [0, 1]"] ;
382 -> 384 ;
385 [label="gini = 0.0\nsamples = 4\nvalue = [4, 0]"] ;
381 -> 385 ;
386 [label="gini = 0.0\nsamples = 8\nvalue = [8, 0]"] ;
376 -> 386 ;
387 [label="X[3] <= 1.5\ngini = 0.499\nsamples = 54\nvalue = [26, 28]"] ;
375 -> 387 ;
388 [label="X[4] <= 43.5\ngini = 0.494\nsamples = 36\nvalue = [20, 16]"] ;
387 -> 388 ;
389 [label="X[0] <= 250000.0\ngini = 0.497\nsamples = 26\nvalue = [12, 14]"] ;
388 -> 389 ;
390 [label="X[4] <= 39.5\ngini = 0.463\nsamples = 22\nvalue = [8, 14]"] ;
389 -> 390 ;
391 [label="X[2] <= 1.5\ngini = 0.498\nsamples = 15\nvalue = [7, 8]"] ;
390 -> 391 ;
392 [label="X[4] <= 37.0\ngini = 0.444\nsamples = 9\nvalue = [6, 3]"] ;
391 -> 392 ;
393 [label="X[0] <= 235000.0\ngini = 0.444\nsamples = 3\nvalue = [1, 2]"] ;
392 -> 393 ;
394 [label="gini = 0.0\nsamples = 1\nvalue = [1, 0]"] ;
393 -> 394 ;
395 [label="gini = 0.0\nsamples = 2\nvalue = [0, 2]"] ;
393 -> 395 ;
396 [label="X[0] <= 235000.0\ngini = 0.278\nsamples = 6\nvalue = [5, 1]"] ;
392 -> 396 ;
397 [label="X[1] <= 1.5\ngini = 0.444\nsamples = 3\nvalue = [2, 1]"] ;
396 -> 397 ;
398 [label="gini = 0.0\nsamples = 2\nvalue = [2, 0]"] ;
397 -> 398 ;
399 [label="gini = 0.0\nsamples = 1\nvalue = [0, 1]"] ;
397 -> 399 ;
400 [label="gini = 0.0\nsamples = 3\nvalue = [3, 0]"] ;
396 -> 400 ;
401 [label="X[12] <= -75.0\ngini = 0.278\nsamples = 6\nvalue = [1, 5]"] ;
391 -> 401 ;
402 [label="gini = 0.0\nsamples = 2\nvalue = [0, 2]"] ;
401 -> 402 ;
403 [label="X[0] <= 235000.0\ngini = 0.375\nsamples = 4\nvalue = [1, 3]"] ;
401 -> 403 ;
404 [label="gini = 0.0\nsamples = 2\nvalue = [0, 2]"] ;
403 -> 404 ;
405 [label="X[4] <= 37.5\ngini = 0.5\nsamples = 2\nvalue = [1, 1]"] ;
403 -> 405 ;
406 [label="gini = 0.0\nsamples = 1\nvalue = [1, 0]"] ;
405 -> 406 ;
407 [label="gini = 0.0\nsamples = 1\nvalue = [0, 1]"] ;
405 -> 407 ;
408 [label="X[4] <= 42.5\ngini = 0.245\nsamples = 7\nvalue = [1, 6]"] ;
390 -> 408 ;
409 [label="gini = 0.0\nsamples = 4\nvalue = [0, 4]"] ;
408 -> 409 ;
410 [label="X[0] <= 230000.0\ngini = 0.444\nsamples = 3\nvalue = [1, 2]"] ;
408 -> 410 ;
411 [label="gini = 0.0\nsamples = 2\nvalue = [0, 2]"] ;
410 -> 411 ;
412 [label="gini = 0.0\nsamples = 1\nvalue = [1, 0]"] ;
410 -> 412 ;
413 [label="gini = 0.0\nsamples = 4\nvalue = [4, 0]"] ;
389 -> 413 ;
414 [label="X[18] <= 250.0\ngini = 0.32\nsamples = 10\nvalue = [8, 2]"] ;
388 -> 414 ;
415 [label="X[4] <= 49.5\ngini = 0.198\nsamples = 9\nvalue = [8, 1]"] ;
414 -> 415 ;
416 [label="gini = 0.0\nsamples = 7\nvalue = [7, 0]"] ;
415 -> 416 ;
417 [label="X[1] <= 1.5\ngini = 0.5\nsamples = 2\nvalue = [1, 1]"] ;
415 -> 417 ;
418 [label="gini = 0.0\nsamples = 1\nvalue = [0, 1]"] ;
417 -> 418 ;
419 [label="gini = 0.0\nsamples = 1\nvalue = [1, 0]"] ;
417 -> 419 ;
420 [label="gini = 0.0\nsamples = 1\nvalue = [0, 1]"] ;
414 -> 420 ;
421 [label="X[4] <= 42.0\ngini = 0.444\nsamples = 18\nvalue = [6, 12]"] ;
387 -> 421 ;
422 [label="X[4] <= 39.0\ngini = 0.497\nsamples = 13\nvalue = [6, 7]"] ;
421 -> 422 ;
423 [label="X[4] <= 36.5\ngini = 0.463\nsamples = 11\nvalue = [4, 7]"] ;
422 -> 423 ;
424 [label="X[0] <= 250000.0\ngini = 0.48\nsamples = 5\nvalue = [3, 2]"] ;
423 -> 424 ;
425 [label="X[2] <= 1.5\ngini = 0.375\nsamples = 4\nvalue = [3, 1]"] ;
424 -> 425 ;
426 [label="gini = 0.0\nsamples = 2\nvalue = [2, 0]"] ;
425 -> 426 ;
427 [label="X[0] <= 235000.0\ngini = 0.5\nsamples = 2\nvalue = [1, 1]"] ;
425 -> 427 ;
428 [label="gini = 0.0\nsamples = 1\nvalue = [0, 1]"] ;
427 -> 428 ;
429 [label="gini = 0.0\nsamples = 1\nvalue = [1, 0]"] ;
427 -> 429 ;
430 [label="gini = 0.0\nsamples = 1\nvalue = [0, 1]"] ;
424 -> 430 ;
431 [label="X[5] <= -0.5\ngini = 0.278\nsamples = 6\nvalue = [1, 5]"] ;
423 -> 431 ;
432 [label="X[2] <= 1.5\ngini = 0.444\nsamples = 3\nvalue = [1, 2]"] ;
431 -> 432 ;
433 [label="gini = 0.0\nsamples = 2\nvalue = [0, 2]"] ;
432 -> 433 ;
434 [label="gini = 0.0\nsamples = 1\nvalue = [1, 0]"] ;
432 -> 434 ;
435 [label="gini = 0.0\nsamples = 3\nvalue = [0, 3]"] ;
431 -> 435 ;
436 [label="gini = 0.0\nsamples = 2\nvalue = [2, 0]"] ;
422 -> 436 ;
437 [label="gini = 0.0\nsamples = 5\nvalue = [0, 5]"] ;
421 -> 437 ;
438 [label="X[12] <= 194.5\ngini = 0.331\nsamples = 43\nvalue = [34, 9]"] ;
316 -> 438 ;
439 [label="X[5] <= -0.5\ngini = 0.308\nsamples = 42\nvalue = [34, 8]"] ;
438 -> 439 ;
440 [label="X[4] <= 50.0\ngini = 0.397\nsamples = 22\nvalue = [16, 6]"] ;
439 -> 440 ;
441 [label="X[4] <= 32.5\ngini = 0.363\nsamples = 21\nvalue = [16, 5]"] ;
440 -> 441 ;
442 [label="gini = 0.0\nsamples = 5\nvalue = [5, 0]"] ;
441 -> 442 ;
443 [label="X[4] <= 33.5\ngini = 0.43\nsamples = 16\nvalue = [11, 5]"] ;
441 -> 443 ;
444 [label="gini = 0.0\nsamples = 1\nvalue = [0, 1]"] ;
443 -> 444 ;
445 [label="X[4] <= 36.0\ngini = 0.391\nsamples = 15\nvalue = [11, 4]"] ;
443 -> 445 ;
446 [label="gini = 0.0\nsamples = 3\nvalue = [3, 0]"] ;
445 -> 446 ;
447 [label="X[4] <= 37.5\ngini = 0.444\nsamples = 12\nvalue = [8, 4]"] ;
445 -> 447 ;
448 [label="gini = 0.0\nsamples = 1\nvalue = [0, 1]"] ;
447 -> 448 ;
449 [label="X[0] <= 305000.0\ngini = 0.397\nsamples = 11\nvalue = [8, 3]"] ;
447 -> 449 ;
450 [label="X[0] <= 295000.0\ngini = 0.49\nsamples = 7\nvalue = [4, 3]"] ;
449 -> 450 ;
451 [label="X[1] <= 1.5\ngini = 0.375\nsamples = 4\nvalue = [3, 1]"] ;
450 -> 451 ;
452 [label="gini = 0.0\nsamples = 3\nvalue = [3, 0]"] ;
451 -> 452 ;
453 [label="gini = 0.0\nsamples = 1\nvalue = [0, 1]"] ;
451 -> 453 ;
454 [label="X[1] <= 1.5\ngini = 0.444\nsamples = 3\nvalue = [1, 2]"] ;
450 -> 454 ;
455 [label="gini = 0.0\nsamples = 2\nvalue = [0, 2]"] ;
454 -> 455 ;
456 [label="gini = 0.0\nsamples = 1\nvalue = [1, 0]"] ;
454 -> 456 ;
457 [label="gini = 0.0\nsamples = 4\nvalue = [4, 0]"] ;
449 -> 457 ;
458 [label="gini = 0.0\nsamples = 1\nvalue = [0, 1]"] ;
440 -> 458 ;
459 [label="X[3] <= 1.5\ngini = 0.18\nsamples = 20\nvalue = [18, 2]"] ;
439 -> 459 ;
460 [label="gini = 0.0\nsamples = 14\nvalue = [14, 0]"] ;
459 -> 460 ;
461 [label="X[4] <= 33.0\ngini = 0.444\nsamples = 6\nvalue = [4, 2]"] ;
459 -> 461 ;
462 [label="gini = 0.0\nsamples = 1\nvalue = [0, 1]"] ;
461 -> 462 ;
463 [label="X[4] <= 44.0\ngini = 0.32\nsamples = 5\nvalue = [4, 1]"] ;
461 -> 463 ;
464 [label="gini = 0.0\nsamples = 3\nvalue = [3, 0]"] ;
463 -> 464 ;
465 [label="X[2] <= 1.5\ngini = 0.5\nsamples = 2\nvalue = [1, 1]"] ;
463 -> 465 ;
466 [label="gini = 0.0\nsamples = 1\nvalue = [0, 1]"] ;
465 -> 466 ;
467 [label="gini = 0.0\nsamples = 1\nvalue = [1, 0]"] ;
465 -> 467 ;
468 [label="gini = 0.0\nsamples = 1\nvalue = [0, 1]"] ;
438 -> 468 ;
469 [label="X[11] <= -144.0\ngini = 0.499\nsamples = 19\nvalue = [9, 10]"] ;
315 -> 469 ;
470 [label="gini = 0.0\nsamples = 2\nvalue = [2, 0]"] ;
469 -> 470 ;
471 [label="X[2] <= 3.5\ngini = 0.484\nsamples = 17\nvalue = [7, 10]"] ;
469 -> 471 ;
472 [label="X[0] <= 220000.0\ngini = 0.444\nsamples = 15\nvalue = [5, 10]"] ;
471 -> 472 ;
473 [label="X[4] <= 37.5\ngini = 0.48\nsamples = 5\nvalue = [3, 2]"] ;
472 -> 473 ;
474 [label="gini = 0.0\nsamples = 2\nvalue = [2, 0]"] ;
473 -> 474 ;
475 [label="X[5] <= -0.5\ngini = 0.444\nsamples = 3\nvalue = [1, 2]"] ;
473 -> 475 ;
476 [label="gini = 0.0\nsamples = 1\nvalue = [1, 0]"] ;
475 -> 476 ;
477 [label="gini = 0.0\nsamples = 2\nvalue = [0, 2]"] ;
475 -> 477 ;
478 [label="X[3] <= 1.5\ngini = 0.32\nsamples = 10\nvalue = [2, 8]"] ;
472 -> 478 ;
479 [label="X[4] <= 33.0\ngini = 0.444\nsamples = 6\nvalue = [2, 4]"] ;
478 -> 479 ;
480 [label="gini = 0.0\nsamples = 2\nvalue = [0, 2]"] ;
479 -> 480 ;
481 [label="X[0] <= 265000.0\ngini = 0.5\nsamples = 4\nvalue = [2, 2]"] ;
479 -> 481 ;
482 [label="gini = 0.0\nsamples = 1\nvalue = [0, 1]"] ;
481 -> 482 ;
483 [label="X[4] <= 37.5\ngini = 0.444\nsamples = 3\nvalue = [2, 1]"] ;
481 -> 483 ;
484 [label="gini = 0.0\nsamples = 2\nvalue = [2, 0]"] ;
483 -> 484 ;
485 [label="gini = 0.0\nsamples = 1\nvalue = [0, 1]"] ;
483 -> 485 ;
486 [label="gini = 0.0\nsamples = 4\nvalue = [0, 4]"] ;
478 -> 486 ;
487 [label="gini = 0.0\nsamples = 2\nvalue = [2, 0]"] ;
471 -> 487 ;
488 [label="gini = 0.0\nsamples = 2\nvalue = [0, 2]"] ;
314 -> 488 ;
489 [label="X[14] <= 464.0\ngini = 0.444\nsamples = 9\nvalue = [3, 6]"] ;
63 -> 489 ;
490 [label="X[4] <= 42.5\ngini = 0.245\nsamples = 7\nvalue = [1, 6]"] ;
489 -> 490 ;
491 [label="gini = 0.0\nsamples = 5\nvalue = [0, 5]"] ;
490 -> 491 ;
492 [label="X[12] <= 747.0\ngini = 0.5\nsamples = 2\nvalue = [1, 1]"] ;
490 -> 492 ;
493 [label="gini = 0.0\nsamples = 1\nvalue = [0, 1]"] ;
492 -> 493 ;
494 [label="gini = 0.0\nsamples = 1\nvalue = [1, 0]"] ;
492 -> 494 ;
495 [label="gini = 0.0\nsamples = 2\nvalue = [2, 0]"] ;
489 -> 495 ;
496 [label="X[14] <= 643.5\ngini = 0.295\nsamples = 78\nvalue = [64, 14]"] ;
62 -> 496 ;
497 [label="X[14] <= -53.0\ngini = 0.227\nsamples = 69\nvalue = [60, 9]"] ;
496 -> 497 ;
498 [label="X[0] <= 185000.0\ngini = 0.48\nsamples = 5\nvalue = [2, 3]"] ;
497 -> 498 ;
499 [label="gini = 0.0\nsamples = 3\nvalue = [0, 3]"] ;
498 -> 499 ;
500 [label="gini = 0.0\nsamples = 2\nvalue = [2, 0]"] ;
498 -> 500 ;
501 [label="X[9] <= 1.0\ngini = 0.17\nsamples = 64\nvalue = [58, 6]"] ;
497 -> 501 ;
502 [label="X[4] <= 49.5\ngini = 0.146\nsamples = 63\nvalue = [58, 5]"] ;
501 -> 502 ;
503 [label="X[13] <= 1865.5\ngini = 0.123\nsamples = 61\nvalue = [57, 4]"] ;
502 -> 503 ;
504 [label="X[8] <= -1.5\ngini = 0.098\nsamples = 58\nvalue = [55, 3]"] ;
503 -> 504 ;
505 [label="X[6] <= -1.5\ngini = 0.17\nsamples = 32\nvalue = [29, 3]"] ;
504 -> 505 ;
506 [label="gini = 0.0\nsamples = 13\nvalue = [13, 0]"] ;
505 -> 506 ;
507 [label="X[11] <= 370.0\ngini = 0.266\nsamples = 19\nvalue = [16, 3]"] ;
505 -> 507 ;
508 [label="X[0] <= 100000.0\ngini = 0.355\nsamples = 13\nvalue = [10, 3]"] ;
507 -> 508 ;
509 [label="gini = 0.0\nsamples = 1\nvalue = [0, 1]"] ;
508 -> 509 ;
510 [label="X[11] <= 162.5\ngini = 0.278\nsamples = 12\nvalue = [10, 2]"] ;
508 -> 510 ;
511 [label="gini = 0.0\nsamples = 4\nvalue = [4, 0]"] ;
510 -> 511 ;
512 [label="X[4] <= 29.0\ngini = 0.375\nsamples = 8\nvalue = [6, 2]"] ;
510 -> 512 ;
513 [label="gini = 0.0\nsamples = 1\nvalue = [0, 1]"] ;
512 -> 513 ;
514 [label="X[2] <= 1.5\ngini = 0.245\nsamples = 7\nvalue = [6, 1]"] ;
512 -> 514 ;
515 [label="gini = 0.0\nsamples = 5\nvalue = [5, 0]"] ;
514 -> 515 ;
516 [label="X[11] <= 268.0\ngini = 0.5\nsamples = 2\nvalue = [1, 1]"] ;
514 -> 516 ;
517 [label="gini = 0.0\nsamples = 1\nvalue = [0, 1]"] ;
516 -> 517 ;
518 [label="gini = 0.0\nsamples = 1\nvalue = [1, 0]"] ;
516 -> 518 ;
519 [label="gini = 0.0\nsamples = 6\nvalue = [6, 0]"] ;
507 -> 519 ;
520 [label="gini = 0.0\nsamples = 26\nvalue = [26, 0]"] ;
504 -> 520 ;
521 [label="X[17] <= 282.5\ngini = 0.444\nsamples = 3\nvalue = [2, 1]"] ;
503 -> 521 ;
522 [label="gini = 0.0\nsamples = 2\nvalue = [2, 0]"] ;
521 -> 522 ;
523 [label="gini = 0.0\nsamples = 1\nvalue = [0, 1]"] ;
521 -> 523 ;
524 [label="X[14] <= -1.5\ngini = 0.5\nsamples = 2\nvalue = [1, 1]"] ;
502 -> 524 ;
525 [label="gini = 0.0\nsamples = 1\nvalue = [1, 0]"] ;
524 -> 525 ;
526 [label="gini = 0.0\nsamples = 1\nvalue = [0, 1]"] ;
524 -> 526 ;
527 [label="gini = 0.0\nsamples = 1\nvalue = [0, 1]"] ;
501 -> 527 ;
528 [label="X[3] <= 1.5\ngini = 0.494\nsamples = 9\nvalue = [4, 5]"] ;
496 -> 528 ;
529 [label="X[0] <= 200000.0\ngini = 0.32\nsamples = 5\nvalue = [4, 1]"] ;
528 -> 529 ;
530 [label="gini = 0.0\nsamples = 4\nvalue = [4, 0]"] ;
529 -> 530 ;
531 [label="gini = 0.0\nsamples = 1\nvalue = [0, 1]"] ;
529 -> 531 ;
532 [label="gini = 0.0\nsamples = 4\nvalue = [0, 4]"] ;
528 -> 532 ;
533 [label="X[0] <= 40000.0\ngini = 0.1\nsamples = 19\nvalue = [18, 1]"] ;
61 -> 533 ;
534 [label="X[7] <= -1.5\ngini = 0.5\nsamples = 2\nvalue = [1, 1]"] ;
533 -> 534 ;
535 [label="gini = 0.0\nsamples = 1\nvalue = [0, 1]"] ;
534 -> 535 ;
536 [label="gini = 0.0\nsamples = 1\nvalue = [1, 0]"] ;
534 -> 536 ;
537 [label="gini = 0.0\nsamples = 17\nvalue = [17, 0]"] ;
533 -> 537 ;
538 [label="gini = 0.0\nsamples = 13\nvalue = [13, 0]"] ;
60 -> 538 ;
539 [label="X[6] <= -1.5\ngini = 0.236\nsamples = 66\nvalue = [57, 9]"] ;
59 -> 539 ;
540 [label="X[4] <= 23.5\ngini = 0.056\nsamples = 35\nvalue = [34, 1]"] ;
539 -> 540 ;
541 [label="gini = 0.0\nsamples = 1\nvalue = [0, 1]"] ;
540 -> 541 ;
542 [label="gini = 0.0\nsamples = 34\nvalue = [34, 0]"] ;
540 -> 542 ;
543 [label="X[17] <= 406.0\ngini = 0.383\nsamples = 31\nvalue = [23, 8]"] ;
539 -> 543 ;
544 [label="X[14] <= 139.0\ngini = 0.472\nsamples = 21\nvalue = [13, 8]"] ;
543 -> 544 ;
545 [label="X[20] <= 734.0\ngini = 0.444\nsamples = 9\nvalue = [3, 6]"] ;
544 -> 545 ;
546 [label="gini = 0.0\nsamples = 5\nvalue = [0, 5]"] ;
545 -> 546 ;
547 [label="X[3] <= 1.5\ngini = 0.375\nsamples = 4\nvalue = [3, 1]"] ;
545 -> 547 ;
548 [label="gini = 0.0\nsamples = 3\nvalue = [3, 0]"] ;
547 -> 548 ;
549 [label="gini = 0.0\nsamples = 1\nvalue = [0, 1]"] ;
547 -> 549 ;
550 [label="X[16] <= 987.5\ngini = 0.278\nsamples = 12\nvalue = [10, 2]"] ;
544 -> 550 ;
551 [label="X[4] <= 47.5\ngini = 0.165\nsamples = 11\nvalue = [10, 1]"] ;
550 -> 551 ;
552 [label="gini = 0.0\nsamples = 9\nvalue = [9, 0]"] ;
551 -> 552 ;
553 [label="X[2] <= 2.5\ngini = 0.5\nsamples = 2\nvalue = [1, 1]"] ;
551 -> 553 ;
554 [label="gini = 0.0\nsamples = 1\nvalue = [1, 0]"] ;
553 -> 554 ;
555 [label="gini = 0.0\nsamples = 1\nvalue = [0, 1]"] ;
553 -> 555 ;
556 [label="gini = 0.0\nsamples = 1\nvalue = [0, 1]"] ;
550 -> 556 ;
557 [label="gini = 0.0\nsamples = 10\nvalue = [10, 0]"] ;
543 -> 557 ;
558 [label="X[2] <= 1.5\ngini = 0.5\nsamples = 33\nvalue = [16, 17]"] ;
58 -> 558 ;
559 [label="X[0] <= 180000.0\ngini = 0.391\nsamples = 15\nvalue = [4, 11]"] ;
558 -> 559 ;
560 [label="X[4] <= 27.5\ngini = 0.5\nsamples = 8\nvalue = [4, 4]"] ;
559 -> 560 ;
561 [label="gini = 0.0\nsamples = 2\nvalue = [0, 2]"] ;
560 -> 561 ;
562 [label="X[15] <= 2592.0\ngini = 0.444\nsamples = 6\nvalue = [4, 2]"] ;
560 -> 562 ;
563 [label="X[0] <= 155000.0\ngini = 0.444\nsamples = 3\nvalue = [1, 2]"] ;
562 -> 563 ;
564 [label="gini = 0.0\nsamples = 2\nvalue = [0, 2]"] ;
563 -> 564 ;
565 [label="gini = 0.0\nsamples = 1\nvalue = [1, 0]"] ;
563 -> 565 ;
566 [label="gini = 0.0\nsamples = 3\nvalue = [3, 0]"] ;
562 -> 566 ;
567 [label="gini = 0.0\nsamples = 7\nvalue = [0, 7]"] ;
559 -> 567 ;
568 [label="X[8] <= -1.5\ngini = 0.444\nsamples = 18\nvalue = [12, 6]"] ;
558 -> 568 ;
569 [label="X[15] <= 1368.0\ngini = 0.165\nsamples = 11\nvalue = [10, 1]"] ;
568 -> 569 ;
570 [label="gini = 0.0\nsamples = 1\nvalue = [0, 1]"] ;
569 -> 570 ;
571 [label="gini = 0.0\nsamples = 10\nvalue = [10, 0]"] ;
569 -> 571 ;
572 [label="X[11] <= -2.0\ngini = 0.408\nsamples = 7\nvalue = [2, 5]"] ;
568 -> 572 ;
573 [label="gini = 0.0\nsamples = 1\nvalue = [1, 0]"] ;
572 -> 573 ;
574 [label="X[1] <= 1.5\ngini = 0.278\nsamples = 6\nvalue = [1, 5]"] ;
572 -> 574 ;
575 [label="gini = 0.0\nsamples = 1\nvalue = [1, 0]"] ;
574 -> 575 ;
576 [label="gini = 0.0\nsamples = 5\nvalue = [0, 5]"] ;
574 -> 576 ;
577 [label="gini = 0.0\nsamples = 16\nvalue = [16, 0]"] ;
57 -> 577 ;
578 [label="X[17] <= 88.5\ngini = 0.499\nsamples = 23\nvalue = [11, 12]"] ;
56 -> 578 ;
579 [label="X[0] <= 115000.0\ngini = 0.444\nsamples = 15\nvalue = [10, 5]"] ;
578 -> 579 ;
580 [label="gini = 0.0\nsamples = 2\nvalue = [0, 2]"] ;
579 -> 580 ;
581 [label="X[0] <= 225000.0\ngini = 0.355\nsamples = 13\nvalue = [10, 3]"] ;
579 -> 581 ;
582 [label="gini = 0.0\nsamples = 7\nvalue = [7, 0]"] ;
581 -> 582 ;
583 [label="X[0] <= 285000.0\ngini = 0.5\nsamples = 6\nvalue = [3, 3]"] ;
581 -> 583 ;
584 [label="gini = 0.0\nsamples = 2\nvalue = [0, 2]"] ;
583 -> 584 ;
585 [label="X[14] <= 11893.5\ngini = 0.375\nsamples = 4\nvalue = [3, 1]"] ;
583 -> 585 ;
586 [label="gini = 0.0\nsamples = 3\nvalue = [3, 0]"] ;
585 -> 586 ;
587 [label="gini = 0.0\nsamples = 1\nvalue = [0, 1]"] ;
585 -> 587 ;
588 [label="X[16] <= 7939.5\ngini = 0.219\nsamples = 8\nvalue = [1, 7]"] ;
578 -> 588 ;
589 [label="gini = 0.0\nsamples = 7\nvalue = [0, 7]"] ;
588 -> 589 ;
590 [label="gini = 0.0\nsamples = 1\nvalue = [1, 0]"] ;
588 -> 590 ;
591 [label="X[15] <= 771.0\ngini = 0.276\nsamples = 133\nvalue = [111, 22]"] ;
55 -> 591 ;
592 [label="X[7] <= 1.0\ngini = 0.191\nsamples = 103\nvalue = [92, 11]"] ;
591 -> 592 ;
593 [label="X[0] <= 305000.0\ngini = 0.127\nsamples = 88\nvalue = [82, 6]"] ;
592 -> 593 ;
594 [label="X[4] <= 42.5\ngini = 0.11\nsamples = 86\nvalue = [81, 5]"] ;
593 -> 594 ;
595 [label="X[0] <= 295000.0\ngini = 0.058\nsamples = 67\nvalue = [65, 2]"] ;
594 -> 595 ;
596 [label="X[17] <= 1203.0\ngini = 0.031\nsamples = 63\nvalue = [62, 1]"] ;
595 -> 596 ;
597 [label="X[17] <= 1165.5\ngini = 0.124\nsamples = 15\nvalue = [14, 1]"] ;
596 -> 597 ;
598 [label="gini = 0.0\nsamples = 14\nvalue = [14, 0]"] ;
597 -> 598 ;
599 [label="gini = 0.0\nsamples = 1\nvalue = [0, 1]"] ;
597 -> 599 ;
600 [label="gini = 0.0\nsamples = 48\nvalue = [48, 0]"] ;
596 -> 600 ;
601 [label="X[15] <= 104.5\ngini = 0.375\nsamples = 4\nvalue = [3, 1]"] ;
595 -> 601 ;
602 [label="gini = 0.0\nsamples = 3\nvalue = [3, 0]"] ;
601 -> 602 ;
603 [label="gini = 0.0\nsamples = 1\nvalue = [0, 1]"] ;
601 -> 603 ;
604 [label="X[4] <= 45.5\ngini = 0.266\nsamples = 19\nvalue = [16, 3]"] ;
594 -> 604 ;
605 [label="X[7] <= -1.5\ngini = 0.469\nsamples = 8\nvalue = [5, 3]"] ;
604 -> 605 ;
606 [label="gini = 0.0\nsamples = 2\nvalue = [0, 2]"] ;
605 -> 606 ;
607 [label="X[2] <= 1.5\ngini = 0.278\nsamples = 6\nvalue = [5, 1]"] ;
605 -> 607 ;
608 [label="gini = 0.0\nsamples = 1\nvalue = [0, 1]"] ;
607 -> 608 ;
609 [label="gini = 0.0\nsamples = 5\nvalue = [5, 0]"] ;
607 -> 609 ;
610 [label="gini = 0.0\nsamples = 11\nvalue = [11, 0]"] ;
604 -> 610 ;
611 [label="X[1] <= 1.5\ngini = 0.5\nsamples = 2\nvalue = [1, 1]"] ;
593 -> 611 ;
612 [label="gini = 0.0\nsamples = 1\nvalue = [1, 0]"] ;
611 -> 612 ;
613 [label="gini = 0.0\nsamples = 1\nvalue = [0, 1]"] ;
611 -> 613 ;
614 [label="X[13] <= 1178.5\ngini = 0.444\nsamples = 15\nvalue = [10, 5]"] ;
592 -> 614 ;
615 [label="X[14] <= 33.0\ngini = 0.408\nsamples = 7\nvalue = [2, 5]"] ;
614 -> 615 ;
616 [label="gini = 0.0\nsamples = 2\nvalue = [2, 0]"] ;
615 -> 616 ;
617 [label="gini = 0.0\nsamples = 5\nvalue = [0, 5]"] ;
615 -> 617 ;
618 [label="gini = 0.0\nsamples = 8\nvalue = [8, 0]"] ;
614 -> 618 ;
619 [label="X[19] <= 482.5\ngini = 0.464\nsamples = 30\nvalue = [19, 11]"] ;
591 -> 619 ;
620 [label="X[20] <= 19884.5\ngini = 0.417\nsamples = 27\nvalue = [19, 8]"] ;
619 -> 620 ;
621 [label="X[14] <= 2188.0\ngini = 0.365\nsamples = 25\nvalue = [19, 6]"] ;
620 -> 621 ;
622 [label="X[15] <= 817.5\ngini = 0.298\nsamples = 22\nvalue = [18, 4]"] ;
621 -> 622 ;
623 [label="gini = 0.0\nsamples = 1\nvalue = [0, 1]"] ;
622 -> 623 ;
624 [label="X[8] <= -1.5\ngini = 0.245\nsamples = 21\nvalue = [18, 3]"] ;
622 -> 624 ;
625 [label="X[17] <= 4104.0\ngini = 0.469\nsamples = 8\nvalue = [5, 3]"] ;
624 -> 625 ;
626 [label="X[15] <= 1100.0\ngini = 0.278\nsamples = 6\nvalue = [5, 1]"] ;
625 -> 626 ;
627 [label="gini = 0.0\nsamples = 1\nvalue = [0, 1]"] ;
626 -> 627 ;
628 [label="gini = 0.0\nsamples = 5\nvalue = [5, 0]"] ;
626 -> 628 ;
629 [label="gini = 0.0\nsamples = 2\nvalue = [0, 2]"] ;
625 -> 629 ;
630 [label="gini = 0.0\nsamples = 13\nvalue = [13, 0]"] ;
624 -> 630 ;
631 [label="X[21] <= 704.0\ngini = 0.444\nsamples = 3\nvalue = [1, 2]"] ;
621 -> 631 ;
632 [label="gini = 0.0\nsamples = 2\nvalue = [0, 2]"] ;
631 -> 632 ;
633 [label="gini = 0.0\nsamples = 1\nvalue = [1, 0]"] ;
631 -> 633 ;
634 [label="gini = 0.0\nsamples = 2\nvalue = [0, 2]"] ;
620 -> 634 ;
635 [label="gini = 0.0\nsamples = 3\nvalue = [0, 3]"] ;
619 -> 635 ;
636 [label="X[18] <= 155.0\ngini = 0.481\nsamples = 231\nvalue = [138, 93]"] ;
6 -> 636 ;
637 [label="X[4] <= 26.5\ngini = 0.495\nsamples = 191\nvalue = [105, 86]"] ;
636 -> 637 ;
638 [label="gini = 0.0\nsamples = 6\nvalue = [6, 0]"] ;
637 -> 638 ;
639 [label="X[16] <= 1119.5\ngini = 0.498\nsamples = 185\nvalue = [99, 86]"] ;
637 -> 639 ;
640 [label="X[11] <= -4.5\ngini = 0.499\nsamples = 177\nvalue = [92, 85]"] ;
639 -> 640 ;
641 [label="X[18] <= 16.0\ngini = 0.346\nsamples = 18\nvalue = [14, 4]"] ;
640 -> 641 ;
642 [label="X[4] <= 32.5\ngini = 0.219\nsamples = 16\nvalue = [14, 2]"] ;
641 -> 642 ;
643 [label="gini = 0.0\nsamples = 1\nvalue = [0, 1]"] ;
642 -> 643 ;
644 [label="X[0] <= 490000.0\ngini = 0.124\nsamples = 15\nvalue = [14, 1]"] ;
642 -> 644 ;
645 [label="gini = 0.0\nsamples = 13\nvalue = [13, 0]"] ;
644 -> 645 ;
646 [label="X[3] <= 1.5\ngini = 0.5\nsamples = 2\nvalue = [1, 1]"] ;
644 -> 646 ;
647 [label="gini = 0.0\nsamples = 1\nvalue = [1, 0]"] ;
646 -> 647 ;
648 [label="gini = 0.0\nsamples = 1\nvalue = [0, 1]"] ;
646 -> 648 ;
649 [label="gini = 0.0\nsamples = 2\nvalue = [0, 2]"] ;
641 -> 649 ;
650 [label="X[4] <= 31.5\ngini = 0.5\nsamples = 159\nvalue = [78, 81]"] ;
640 -> 650 ;
651 [label="X[0] <= 335000.0\ngini = 0.47\nsamples = 37\nvalue = [23, 14]"] ;
650 -> 651 ;
652 [label="gini = 0.0\nsamples = 3\nvalue = [0, 3]"] ;
651 -> 652 ;
653 [label="X[20] <= 755.5\ngini = 0.438\nsamples = 34\nvalue = [23, 11]"] ;
651 -> 653 ;
654 [label="X[11] <= -2.0\ngini = 0.404\nsamples = 32\nvalue = [23, 9]"] ;
653 -> 654 ;
655 [label="gini = 0.0\nsamples = 1\nvalue = [0, 1]"] ;
654 -> 655 ;
656 [label="X[4] <= 30.5\ngini = 0.383\nsamples = 31\nvalue = [23, 8]"] ;
654 -> 656 ;
657 [label="X[12] <= 1250.0\ngini = 0.408\nsamples = 28\nvalue = [20, 8]"] ;
656 -> 657 ;
658 [label="X[4] <= 27.5\ngini = 0.426\nsamples = 26\nvalue = [18, 8]"] ;
657 -> 658 ;
659 [label="X[2] <= 2.0\ngini = 0.278\nsamples = 6\nvalue = [5, 1]"] ;
658 -> 659 ;
660 [label="X[5] <= -0.5\ngini = 0.375\nsamples = 4\nvalue = [3, 1]"] ;
659 -> 660 ;
661 [label="gini = 0.0\nsamples = 1\nvalue = [1, 0]"] ;
660 -> 661 ;
662 [label="gini = 0.444\nsamples = 3\nvalue = [2, 1]"] ;
660 -> 662 ;
663 [label="gini = 0.0\nsamples = 2\nvalue = [2, 0]"] ;
659 -> 663 ;
664 [label="X[2] <= 2.5\ngini = 0.455\nsamples = 20\nvalue = [13, 7]"] ;
658 -> 664 ;
665 [label="X[1] <= 1.5\ngini = 0.415\nsamples = 17\nvalue = [12, 5]"] ;
664 -> 665 ;
666 [label="X[4] <= 29.5\ngini = 0.5\nsamples = 6\nvalue = [3, 3]"] ;
665 -> 666 ;
667 [label="X[2] <= 1.5\ngini = 0.48\nsamples = 5\nvalue = [3, 2]"] ;
666 -> 667 ;
668 [label="X[5] <= -0.5\ngini = 0.375\nsamples = 4\nvalue = [3, 1]"] ;
667 -> 668 ;
669 [label="X[4] <= 28.5\ngini = 0.444\nsamples = 3\nvalue = [2, 1]"] ;
668 -> 669 ;
670 [label="gini = 0.0\nsamples = 1\nvalue = [1, 0]"] ;
669 -> 670 ;
671 [label="gini = 0.5\nsamples = 2\nvalue = [1, 1]"] ;
669 -> 671 ;
672 [label="gini = 0.0\nsamples = 1\nvalue = [1, 0]"] ;
668 -> 672 ;
673 [label="gini = 0.0\nsamples = 1\nvalue = [0, 1]"] ;
667 -> 673 ;
674 [label="gini = 0.0\nsamples = 1\nvalue = [0, 1]"] ;
666 -> 674 ;
675 [label="X[4] <= 29.5\ngini = 0.298\nsamples = 11\nvalue = [9, 2]"] ;
665 -> 675 ;
676 [label="X[3] <= 1.5\ngini = 0.375\nsamples = 8\nvalue = [6, 2]"] ;
675 -> 676 ;
677 [label="gini = 0.0\nsamples = 3\nvalue = [3, 0]"] ;
676 -> 677 ;
678 [label="X[5] <= -0.5\ngini = 0.48\nsamples = 5\nvalue = [3, 2]"] ;
676 -> 678 ;
679 [label="gini = 0.0\nsamples = 1\nvalue = [0, 1]"] ;
678 -> 679 ;
680 [label="X[4] <= 28.5\ngini = 0.375\nsamples = 4\nvalue = [3, 1]"] ;
678 -> 680 ;
681 [label="gini = 0.0\nsamples = 1\nvalue = [0, 1]"] ;
680 -> 681 ;
682 [label="gini = 0.0\nsamples = 3\nvalue = [3, 0]"] ;
680 -> 682 ;
683 [label="gini = 0.0\nsamples = 3\nvalue = [3, 0]"] ;
675 -> 683 ;
684 [label="X[1] <= 1.5\ngini = 0.444\nsamples = 3\nvalue = [1, 2]"] ;
664 -> 684 ;
685 [label="gini = 0.0\nsamples = 1\nvalue = [1, 0]"] ;
684 -> 685 ;
686 [label="gini = 0.0\nsamples = 2\nvalue = [0, 2]"] ;
684 -> 686 ;
687 [label="gini = 0.0\nsamples = 2\nvalue = [2, 0]"] ;
657 -> 687 ;
688 [label="gini = 0.0\nsamples = 3\nvalue = [3, 0]"] ;
656 -> 688 ;
689 [label="gini = 0.0\nsamples = 2\nvalue = [0, 2]"] ;
653 -> 689 ;
690 [label="X[15] <= 1039.5\ngini = 0.495\nsamples = 122\nvalue = [55, 67]"] ;
650 -> 690 ;
691 [label="X[4] <= 36.5\ngini = 0.491\nsamples = 118\nvalue = [51, 67]"] ;
690 -> 691 ;
692 [label="X[21] <= 81466.0\ngini = 0.426\nsamples = 39\nvalue = [12, 27]"] ;
691 -> 692 ;
693 [label="X[10] <= -0.5\ngini = 0.411\nsamples = 38\nvalue = [11, 27]"] ;
692 -> 693 ;
694 [label="X[12] <= -0.5\ngini = 0.394\nsamples = 37\nvalue = [10, 27]"] ;
693 -> 694 ;
695 [label="gini = 0.0\nsamples = 1\nvalue = [1, 0]"] ;
694 -> 695 ;
696 [label="X[2] <= 2.5\ngini = 0.375\nsamples = 36\nvalue = [9, 27]"] ;
694 -> 696 ;
697 [label="X[1] <= 1.5\ngini = 0.334\nsamples = 33\nvalue = [7, 26]"] ;
696 -> 697 ;
698 [label="X[21] <= 128.0\ngini = 0.444\nsamples = 12\nvalue = [4, 8]"] ;
697 -> 698 ;
699 [label="X[5] <= -0.5\ngini = 0.397\nsamples = 11\nvalue = [3, 8]"] ;
698 -> 699 ;
700 [label="X[4] <= 35.0\ngini = 0.444\nsamples = 3\nvalue = [2, 1]"] ;
699 -> 700 ;
701 [label="gini = 0.0\nsamples = 2\nvalue = [2, 0]"] ;
700 -> 701 ;
702 [label="gini = 0.0\nsamples = 1\nvalue = [0, 1]"] ;
700 -> 702 ;
703 [label="X[4] <= 34.5\ngini = 0.219\nsamples = 8\nvalue = [1, 7]"] ;
699 -> 703 ;
704 [label="gini = 0.0\nsamples = 5\nvalue = [0, 5]"] ;
703 -> 704 ;
705 [label="X[2] <= 1.5\ngini = 0.444\nsamples = 3\nvalue = [1, 2]"] ;
703 -> 705 ;
706 [label="gini = 0.0\nsamples = 2\nvalue = [0, 2]"] ;
705 -> 706 ;
707 [label="gini = 0.0\nsamples = 1\nvalue = [1, 0]"] ;
705 -> 707 ;
708 [label="gini = 0.0\nsamples = 1\nvalue = [1, 0]"] ;
698 -> 708 ;
709 [label="X[4] <= 34.5\ngini = 0.245\nsamples = 21\nvalue = [3, 18]"] ;
697 -> 709 ;
710 [label="X[0] <= 430000.0\ngini = 0.32\nsamples = 15\nvalue = [3, 12]"] ;
709 -> 710 ;
711 [label="X[4] <= 32.5\ngini = 0.26\nsamples = 13\nvalue = [2, 11]"] ;
710 -> 711 ;
712 [label="X[0] <= 355000.0\ngini = 0.444\nsamples = 3\nvalue = [1, 2]"] ;
711 -> 712 ;
713 [label="gini = 0.0\nsamples = 1\nvalue = [0, 1]"] ;
712 -> 713 ;
714 [label="X[5] <= -0.5\ngini = 0.5\nsamples = 2\nvalue = [1, 1]"] ;
712 -> 714 ;
715 [label="gini = 0.0\nsamples = 1\nvalue = [1, 0]"] ;
714 -> 715 ;
716 [label="gini = 0.0\nsamples = 1\nvalue = [0, 1]"] ;
714 -> 716 ;
717 [label="X[2] <= 1.5\ngini = 0.18\nsamples = 10\nvalue = [1, 9]"] ;
711 -> 717 ;
718 [label="gini = 0.0\nsamples = 7\nvalue = [0, 7]"] ;
717 -> 718 ;
719 [label="X[14] <= 350.0\ngini = 0.444\nsamples = 3\nvalue = [1, 2]"] ;
717 -> 719 ;
720 [label="gini = 0.5\nsamples = 2\nvalue = [1, 1]"] ;
719 -> 720 ;
721 [label="gini = 0.0\nsamples = 1\nvalue = [0, 1]"] ;
719 -> 721 ;
722 [label="X[0] <= 460000.0\ngini = 0.5\nsamples = 2\nvalue = [1, 1]"] ;
710 -> 722 ;
723 [label="gini = 0.0\nsamples = 1\nvalue = [1, 0]"] ;
722 -> 723 ;
724 [label="gini = 0.0\nsamples = 1\nvalue = [0, 1]"] ;
722 -> 724 ;
725 [label="gini = 0.0\nsamples = 6\nvalue = [0, 6]"] ;
709 -> 725 ;
726 [label="X[4] <= 33.5\ngini = 0.444\nsamples = 3\nvalue = [2, 1]"] ;
696 -> 726 ;
727 [label="gini = 0.0\nsamples = 2\nvalue = [2, 0]"] ;
726 -> 727 ;
728 [label="gini = 0.0\nsamples = 1\nvalue = [0, 1]"] ;
726 -> 728 ;
729 [label="gini = 0.0\nsamples = 1\nvalue = [1, 0]"] ;
693 -> 729 ;
730 [label="gini = 0.0\nsamples = 1\nvalue = [1, 0]"] ;
692 -> 730 ;
731 [label="X[5] <= -1.5\ngini = 0.5\nsamples = 79\nvalue = [39, 40]"] ;
691 -> 731 ;
732 [label="X[3] <= 1.5\ngini = 0.471\nsamples = 29\nvalue = [11, 18]"] ;
731 -> 732 ;
733 [label="X[10] <= -1.5\ngini = 0.499\nsamples = 21\nvalue = [11, 10]"] ;
732 -> 733 ;
734 [label="X[2] <= 1.5\ngini = 0.488\nsamples = 19\nvalue = [11, 8]"] ;
733 -> 734 ;
735 [label="X[17] <= 61.5\ngini = 0.469\nsamples = 8\nvalue = [3, 5]"] ;
734 -> 735 ;
736 [label="X[4] <= 47.5\ngini = 0.408\nsamples = 7\nvalue = [2, 5]"] ;
735 -> 736 ;
737 [label="X[4] <= 38.5\ngini = 0.278\nsamples = 6\nvalue = [1, 5]"] ;
736 -> 737 ;
738 [label="gini = 0.0\nsamples = 3\nvalue = [0, 3]"] ;
737 -> 738 ;
739 [label="X[4] <= 40.0\ngini = 0.444\nsamples = 3\nvalue = [1, 2]"] ;
737 -> 739 ;
740 [label="gini = 0.0\nsamples = 1\nvalue = [1, 0]"] ;
739 -> 740 ;
741 [label="gini = 0.0\nsamples = 2\nvalue = [0, 2]"] ;
739 -> 741 ;
742 [label="gini = 0.0\nsamples = 1\nvalue = [1, 0]"] ;
736 -> 742 ;
743 [label="gini = 0.0\nsamples = 1\nvalue = [1, 0]"] ;
735 -> 743 ;
744 [label="X[4] <= 46.5\ngini = 0.397\nsamples = 11\nvalue = [8, 3]"] ;
734 -> 744 ;
745 [label="X[2] <= 2.5\ngini = 0.32\nsamples = 10\nvalue = [8, 2]"] ;
744 -> 745 ;
746 [label="gini = 0.0\nsamples = 6\nvalue = [6, 0]"] ;
745 -> 746 ;
747 [label="X[21] <= 119.5\ngini = 0.5\nsamples = 4\nvalue = [2, 2]"] ;
745 -> 747 ;
748 [label="X[0] <= 345000.0\ngini = 0.444\nsamples = 3\nvalue = [1, 2]"] ;
747 -> 748 ;
749 [label="gini = 0.0\nsamples = 1\nvalue = [1, 0]"] ;
748 -> 749 ;
750 [label="gini = 0.0\nsamples = 2\nvalue = [0, 2]"] ;
748 -> 750 ;
751 [label="gini = 0.0\nsamples = 1\nvalue = [1, 0]"] ;
747 -> 751 ;
752 [label="gini = 0.0\nsamples = 1\nvalue = [0, 1]"] ;
744 -> 752 ;
753 [label="gini = 0.0\nsamples = 2\nvalue = [0, 2]"] ;
733 -> 753 ;
754 [label="gini = 0.0\nsamples = 8\nvalue = [0, 8]"] ;
732 -> 754 ;
755 [label="X[4] <= 37.5\ngini = 0.493\nsamples = 50\nvalue = [28, 22]"] ;
731 -> 755 ;
756 [label="gini = 0.0\nsamples = 3\nvalue = [3, 0]"] ;
755 -> 756 ;
757 [label="X[15] <= 61.5\ngini = 0.498\nsamples = 47\nvalue = [25, 22]"] ;
755 -> 757 ;
758 [label="X[0] <= 340000.0\ngini = 0.5\nsamples = 45\nvalue = [23, 22]"] ;
757 -> 758 ;
759 [label="X[4] <= 43.5\ngini = 0.375\nsamples = 4\nvalue = [1, 3]"] ;
758 -> 759 ;
760 [label="gini = 0.0\nsamples = 3\nvalue = [0, 3]"] ;
759 -> 760 ;
761 [label="gini = 0.0\nsamples = 1\nvalue = [1, 0]"] ;
759 -> 761 ;
762 [label="X[2] <= 1.5\ngini = 0.497\nsamples = 41\nvalue = [22, 19]"] ;
758 -> 762 ;
763 [label="X[11] <= 245.5\ngini = 0.473\nsamples = 26\nvalue = [16, 10]"] ;
762 -> 763 ;
764 [label="X[4] <= 43.5\ngini = 0.461\nsamples = 25\nvalue = [16, 9]"] ;
763 -> 764 ;
765 [label="X[4] <= 42.5\ngini = 0.492\nsamples = 16\nvalue = [9, 7]"] ;
764 -> 765 ;
766 [label="X[3] <= 1.5\ngini = 0.459\nsamples = 14\nvalue = [9, 5]"] ;
765 -> 766 ;
767 [label="X[0] <= 355000.0\ngini = 0.486\nsamples = 12\nvalue = [7, 5]"] ;
766 -> 767 ;
768 [label="gini = 0.0\nsamples = 1\nvalue = [1, 0]"] ;
767 -> 768 ;
769 [label="X[4] <= 38.5\ngini = 0.496\nsamples = 11\nvalue = [6, 5]"] ;
767 -> 769 ;
770 [label="gini = 0.0\nsamples = 1\nvalue = [0, 1]"] ;
769 -> 770 ;
771 [label="X[0] <= 365000.0\ngini = 0.48\nsamples = 10\nvalue = [6, 4]"] ;
769 -> 771 ;
772 [label="gini = 0.0\nsamples = 1\nvalue = [1, 0]"] ;
771 -> 772 ;
773 [label="X[0] <= 465000.0\ngini = 0.494\nsamples = 9\nvalue = [5, 4]"] ;
771 -> 773 ;
774 [label="X[1] <= 1.5\ngini = 0.48\nsamples = 5\nvalue = [2, 3]"] ;
773 -> 774 ;
775 [label="X[0] <= 375000.0\ngini = 0.375\nsamples = 4\nvalue = [1, 3]"] ;
774 -> 775 ;
776 [label="gini = 0.5\nsamples = 2\nvalue = [1, 1]"] ;
775 -> 776 ;
777 [label="gini = 0.0\nsamples = 2\nvalue = [0, 2]"] ;
775 -> 777 ;
778 [label="gini = 0.0\nsamples = 1\nvalue = [1, 0]"] ;
774 -> 778 ;
779 [label="X[1] <= 1.5\ngini = 0.375\nsamples = 4\nvalue = [3, 1]"] ;
773 -> 779 ;
780 [label="gini = 0.0\nsamples = 3\nvalue = [3, 0]"] ;
779 -> 780 ;
781 [label="gini = 0.0\nsamples = 1\nvalue = [0, 1]"] ;
779 -> 781 ;
782 [label="gini = 0.0\nsamples = 2\nvalue = [2, 0]"] ;
766 -> 782 ;
783 [label="gini = 0.0\nsamples = 2\nvalue = [0, 2]"] ;
765 -> 783 ;
784 [label="X[4] <= 47.5\ngini = 0.346\nsamples = 9\nvalue = [7, 2]"] ;
764 -> 784 ;
785 [label="gini = 0.0\nsamples = 4\nvalue = [4, 0]"] ;
784 -> 785 ;
786 [label="X[0] <= 370000.0\ngini = 0.48\nsamples = 5\nvalue = [3, 2]"] ;
784 -> 786 ;
787 [label="X[4] <= 50.5\ngini = 0.444\nsamples = 3\nvalue = [1, 2]"] ;
786 -> 787 ;
788 [label="X[1] <= 1.5\ngini = 0.5\nsamples = 2\nvalue = [1, 1]"] ;
787 -> 788 ;
789 [label="gini = 0.0\nsamples = 1\nvalue = [1, 0]"] ;
788 -> 789 ;
790 [label="gini = 0.0\nsamples = 1\nvalue = [0, 1]"] ;
788 -> 790 ;
791 [label="gini = 0.0\nsamples = 1\nvalue = [0, 1]"] ;
787 -> 791 ;
792 [label="gini = 0.0\nsamples = 2\nvalue = [2, 0]"] ;
786 -> 792 ;
793 [label="gini = 0.0\nsamples = 1\nvalue = [0, 1]"] ;
763 -> 793 ;
794 [label="X[4] <= 38.5\ngini = 0.48\nsamples = 15\nvalue = [6, 9]"] ;
762 -> 794 ;
795 [label="gini = 0.0\nsamples = 3\nvalue = [3, 0]"] ;
794 -> 795 ;
796 [label="X[0] <= 390000.0\ngini = 0.375\nsamples = 12\nvalue = [3, 9]"] ;
794 -> 796 ;
797 [label="X[2] <= 2.5\ngini = 0.198\nsamples = 9\nvalue = [1, 8]"] ;
796 -> 797 ;
798 [label="gini = 0.0\nsamples = 7\nvalue = [0, 7]"] ;
797 -> 798 ;
799 [label="X[4] <= 39.5\ngini = 0.5\nsamples = 2\nvalue = [1, 1]"] ;
797 -> 799 ;
800 [label="gini = 0.0\nsamples = 1\nvalue = [0, 1]"] ;
799 -> 800 ;
801 [label="gini = 0.0\nsamples = 1\nvalue = [1, 0]"] ;
799 -> 801 ;
802 [label="X[4] <= 39.5\ngini = 0.444\nsamples = 3\nvalue = [2, 1]"] ;
796 -> 802 ;
803 [label="gini = 0.0\nsamples = 1\nvalue = [0, 1]"] ;
802 -> 803 ;
804 [label="gini = 0.0\nsamples = 2\nvalue = [2, 0]"] ;
802 -> 804 ;
805 [label="gini = 0.0\nsamples = 2\nvalue = [2, 0]"] ;
757 -> 805 ;
806 [label="gini = 0.0\nsamples = 4\nvalue = [4, 0]"] ;
690 -> 806 ;
807 [label="X[12] <= -4.5\ngini = 0.219\nsamples = 8\nvalue = [7, 1]"] ;
639 -> 807 ;
808 [label="gini = 0.0\nsamples = 1\nvalue = [0, 1]"] ;
807 -> 808 ;
809 [label="gini = 0.0\nsamples = 7\nvalue = [7, 0]"] ;
807 -> 809 ;
810 [label="X[17] <= 383.5\ngini = 0.289\nsamples = 40\nvalue = [33, 7]"] ;
636 -> 810 ;
811 [label="X[4] <= 44.0\ngini = 0.457\nsamples = 17\nvalue = [11, 6]"] ;
810 -> 811 ;
812 [label="X[5] <= -1.5\ngini = 0.391\nsamples = 15\nvalue = [11, 4]"] ;
811 -> 812 ;
813 [label="X[17] <= 89.5\ngini = 0.48\nsamples = 5\nvalue = [2, 3]"] ;
812 -> 813 ;
814 [label="gini = 0.0\nsamples = 3\nvalue = [0, 3]"] ;
813 -> 814 ;
815 [label="gini = 0.0\nsamples = 2\nvalue = [2, 0]"] ;
813 -> 815 ;
816 [label="X[12] <= 67.5\ngini = 0.18\nsamples = 10\nvalue = [9, 1]"] ;
812 -> 816 ;
817 [label="gini = 0.0\nsamples = 8\nvalue = [8, 0]"] ;
816 -> 817 ;
818 [label="X[17] <= 217.5\ngini = 0.5\nsamples = 2\nvalue = [1, 1]"] ;
816 -> 818 ;
819 [label="gini = 0.0\nsamples = 1\nvalue = [0, 1]"] ;
818 -> 819 ;
820 [label="gini = 0.0\nsamples = 1\nvalue = [1, 0]"] ;
818 -> 820 ;
821 [label="gini = 0.0\nsamples = 2\nvalue = [0, 2]"] ;
811 -> 821 ;
822 [label="X[14] <= -14.0\ngini = 0.083\nsamples = 23\nvalue = [22, 1]"] ;
810 -> 822 ;
823 [label="gini = 0.0\nsamples = 1\nvalue = [0, 1]"] ;
822 -> 823 ;
824 [label="gini = 0.0\nsamples = 22\nvalue = [22, 0]"] ;
822 -> 824 ;
825 [label="X[8] <= 1.0\ngini = 0.338\nsamples = 767\nvalue = [602, 165]"] ;
5 -> 825 ;
826 [label="X[15] <= 951.0\ngini = 0.319\nsamples = 723\nvalue = [579, 144]"] ;
825 -> 826 ;
827 [label="X[5] <= -1.5\ngini = 0.364\nsamples = 551\nvalue = [419, 132]"] ;
826 -> 827 ;
828 [label="X[18] <= 423.0\ngini = 0.22\nsamples = 143\nvalue = [125, 18]"] ;
827 -> 828 ;
829 [label="X[4] <= 49.5\ngini = 0.095\nsamples = 100\nvalue = [95, 5]"] ;
828 -> 829 ;
830 [label="X[4] <= 37.5\ngini = 0.06\nsamples = 97\nvalue = [94, 3]"] ;
829 -> 830 ;
831 [label="gini = 0.0\nsamples = 63\nvalue = [63, 0]"] ;
830 -> 831 ;
832 [label="X[12] <= 67.5\ngini = 0.161\nsamples = 34\nvalue = [31, 3]"] ;
830 -> 832 ;
833 [label="X[22] <= 870.0\ngini = 0.291\nsamples = 17\nvalue = [14, 3]"] ;
832 -> 833 ;
834 [label="X[4] <= 40.0\ngini = 0.5\nsamples = 6\nvalue = [3, 3]"] ;
833 -> 834 ;
835 [label="gini = 0.0\nsamples = 2\nvalue = [0, 2]"] ;
834 -> 835 ;
836 [label="X[0] <= 265000.0\ngini = 0.375\nsamples = 4\nvalue = [3, 1]"] ;
834 -> 836 ;
837 [label="gini = 0.0\nsamples = 3\nvalue = [3, 0]"] ;
836 -> 837 ;
838 [label="gini = 0.0\nsamples = 1\nvalue = [0, 1]"] ;
836 -> 838 ;
839 [label="gini = 0.0\nsamples = 11\nvalue = [11, 0]"] ;
833 -> 839 ;
840 [label="gini = 0.0\nsamples = 17\nvalue = [17, 0]"] ;
832 -> 840 ;
841 [label="X[19] <= 117.5\ngini = 0.444\nsamples = 3\nvalue = [1, 2]"] ;
829 -> 841 ;
842 [label="gini = 0.0\nsamples = 2\nvalue = [0, 2]"] ;
841 -> 842 ;
843 [label="gini = 0.0\nsamples = 1\nvalue = [1, 0]"] ;
841 -> 843 ;
844 [label="X[13] <= 440.0\ngini = 0.422\nsamples = 43\nvalue = [30, 13]"] ;
828 -> 844 ;
845 [label="X[4] <= 28.0\ngini = 0.245\nsamples = 7\nvalue = [1, 6]"] ;
844 -> 845 ;
846 [label="gini = 0.0\nsamples = 1\nvalue = [1, 0]"] ;
845 -> 846 ;
847 [label="gini = 0.0\nsamples = 6\nvalue = [0, 6]"] ;
845 -> 847 ;
848 [label="X[18] <= 1032.0\ngini = 0.313\nsamples = 36\nvalue = [29, 7]"] ;
844 -> 848 ;
849 [label="gini = 0.0\nsamples = 13\nvalue = [13, 0]"] ;
848 -> 849 ;
850 [label="X[18] <= 2035.0\ngini = 0.423\nsamples = 23\nvalue = [16, 7]"] ;
848 -> 850 ;
851 [label="X[14] <= 432.5\ngini = 0.278\nsamples = 6\nvalue = [1, 5]"] ;
850 -> 851 ;
852 [label="gini = 0.0\nsamples = 5\nvalue = [0, 5]"] ;
851 -> 852 ;
853 [label="gini = 0.0\nsamples = 1\nvalue = [1, 0]"] ;
851 -> 853 ;
854 [label="X[11] <= -30.5\ngini = 0.208\nsamples = 17\nvalue = [15, 2]"] ;
850 -> 854 ;
855 [label="gini = 0.0\nsamples = 1\nvalue = [0, 1]"] ;
854 -> 855 ;
856 [label="X[4] <= 30.0\ngini = 0.117\nsamples = 16\nvalue = [15, 1]"] ;
854 -> 856 ;
857 [label="X[18] <= 6027.5\ngini = 0.444\nsamples = 3\nvalue = [2, 1]"] ;
856 -> 857 ;
858 [label="gini = 0.0\nsamples = 1\nvalue = [0, 1]"] ;
857 -> 858 ;
859 [label="gini = 0.0\nsamples = 2\nvalue = [2, 0]"] ;
857 -> 859 ;
860 [label="gini = 0.0\nsamples = 13\nvalue = [13, 0]"] ;
856 -> 860 ;
861 [label="X[15] <= 474.0\ngini = 0.403\nsamples = 408\nvalue = [294, 114]"] ;
827 -> 861 ;
862 [label="X[0] <= 15000.0\ngini = 0.375\nsamples = 340\nvalue = [255, 85]"] ;
861 -> 862 ;
863 [label="gini = 0.0\nsamples = 3\nvalue = [0, 3]"] ;
862 -> 863 ;
864 [label="X[12] <= 523.5\ngini = 0.368\nsamples = 337\nvalue = [255, 82]"] ;
862 -> 864 ;
865 [label="X[22] <= 40631.0\ngini = 0.333\nsamples = 280\nvalue = [221, 59]"] ;
864 -> 865 ;
866 [label="X[21] <= 487.0\ngini = 0.323\nsamples = 276\nvalue = [220, 56]"] ;
865 -> 866 ;
867 [label="X[21] <= 471.0\ngini = 0.364\nsamples = 209\nvalue = [159, 50]"] ;
866 -> 867 ;
868 [label="X[0] <= 95000.0\ngini = 0.356\nsamples = 207\nvalue = [159, 48]"] ;
867 -> 868 ;
869 [label="X[12] <= 27.0\ngini = 0.45\nsamples = 38\nvalue = [25, 13]"] ;
868 -> 869 ;
870 [label="X[22] <= 990.0\ngini = 0.278\nsamples = 18\nvalue = [15, 3]"] ;
869 -> 870 ;
871 [label="gini = 0.0\nsamples = 11\nvalue = [11, 0]"] ;
870 -> 871 ;
872 [label="X[0] <= 55000.0\ngini = 0.49\nsamples = 7\nvalue = [4, 3]"] ;
870 -> 872 ;
873 [label="X[22] <= 5888.0\ngini = 0.32\nsamples = 5\nvalue = [4, 1]"] ;
872 -> 873 ;
874 [label="gini = 0.0\nsamples = 4\nvalue = [4, 0]"] ;
873 -> 874 ;
875 [label="gini = 0.0\nsamples = 1\nvalue = [0, 1]"] ;
873 -> 875 ;
876 [label="gini = 0.0\nsamples = 2\nvalue = [0, 2]"] ;
872 -> 876 ;
877 [label="X[4] <= 38.5\ngini = 0.5\nsamples = 20\nvalue = [10, 10]"] ;
869 -> 877 ;
878 [label="X[22] <= 3017.0\ngini = 0.346\nsamples = 9\nvalue = [7, 2]"] ;
877 -> 878 ;
879 [label="X[1] <= 1.5\ngini = 0.219\nsamples = 8\nvalue = [7, 1]"] ;
878 -> 879 ;
880 [label="X[15] <= 403.0\ngini = 0.5\nsamples = 2\nvalue = [1, 1]"] ;
879 -> 880 ;
881 [label="gini = 0.0\nsamples = 1\nvalue = [0, 1]"] ;
880 -> 881 ;
882 [label="gini = 0.0\nsamples = 1\nvalue = [1, 0]"] ;
880 -> 882 ;
883 [label="gini = 0.0\nsamples = 6\nvalue = [6, 0]"] ;
879 -> 883 ;
884 [label="gini = 0.0\nsamples = 1\nvalue = [0, 1]"] ;
878 -> 884 ;
885 [label="X[3] <= 2.5\ngini = 0.397\nsamples = 11\nvalue = [3, 8]"] ;
877 -> 885 ;
886 [label="X[4] <= 49.0\ngini = 0.32\nsamples = 10\nvalue = [2, 8]"] ;
885 -> 886 ;
887 [label="X[0] <= 70000.0\ngini = 0.198\nsamples = 9\nvalue = [1, 8]"] ;
886 -> 887 ;
888 [label="gini = 0.0\nsamples = 6\nvalue = [0, 6]"] ;
887 -> 888 ;
889 [label="X[0] <= 85000.0\ngini = 0.444\nsamples = 3\nvalue = [1, 2]"] ;
887 -> 889 ;
890 [label="gini = 0.0\nsamples = 1\nvalue = [1, 0]"] ;
889 -> 890 ;
891 [label="gini = 0.0\nsamples = 2\nvalue = [0, 2]"] ;
889 -> 891 ;
892 [label="gini = 0.0\nsamples = 1\nvalue = [1, 0]"] ;
886 -> 892 ;
893 [label="gini = 0.0\nsamples = 1\nvalue = [1, 0]"] ;
885 -> 893 ;
894 [label="X[18] <= 222.5\ngini = 0.328\nsamples = 169\nvalue = [134, 35]"] ;
868 -> 894 ;
895 [label="X[13] <= 194.0\ngini = 0.406\nsamples = 67\nvalue = [48, 19]"] ;
894 -> 895 ;
896 [label="X[19] <= 149.0\ngini = 0.375\nsamples = 64\nvalue = [48, 16]"] ;
895 -> 896 ;
897 [label="X[22] <= 1411.5\ngini = 0.417\nsamples = 54\nvalue = [38, 16]"] ;
896 -> 897 ;
898 [label="X[21] <= 136.5\ngini = 0.487\nsamples = 31\nvalue = [18, 13]"] ;
897 -> 898 ;
899 [label="X[0] <= 185000.0\ngini = 0.5\nsamples = 26\nvalue = [13, 13]"] ;
898 -> 899 ;
900 [label="X[4] <= 34.0\ngini = 0.444\nsamples = 12\nvalue = [4, 8]"] ;
899 -> 900 ;
901 [label="X[11] <= 111.0\ngini = 0.5\nsamples = 8\nvalue = [4, 4]"] ;
900 -> 901 ;
902 [label="X[2] <= 1.5\ngini = 0.444\nsamples = 6\nvalue = [4, 2]"] ;
901 -> 902 ;
903 [label="gini = 0.0\nsamples = 3\nvalue = [3, 0]"] ;
902 -> 903 ;
904 [label="X[5] <= 0.0\ngini = 0.444\nsamples = 3\nvalue = [1, 2]"] ;
902 -> 904 ;
905 [label="gini = 0.0\nsamples = 1\nvalue = [1, 0]"] ;
904 -> 905 ;
906 [label="gini = 0.0\nsamples = 2\nvalue = [0, 2]"] ;
904 -> 906 ;
907 [label="gini = 0.0\nsamples = 2\nvalue = [0, 2]"] ;
901 -> 907 ;
908 [label="gini = 0.0\nsamples = 4\nvalue = [0, 4]"] ;
900 -> 908 ;
909 [label="X[22] <= 152.0\ngini = 0.459\nsamples = 14\nvalue = [9, 5]"] ;
899 -> 909 ;
910 [label="X[11] <= 161.0\ngini = 0.375\nsamples = 4\nvalue = [1, 3]"] ;
909 -> 910 ;
911 [label="gini = 0.0\nsamples = 3\nvalue = [0, 3]"] ;
910 -> 911 ;
912 [label="gini = 0.0\nsamples = 1\nvalue = [1, 0]"] ;
910 -> 912 ;
913 [label="X[21] <= 34.5\ngini = 0.32\nsamples = 10\nvalue = [8, 2]"] ;
909 -> 913 ;
914 [label="X[4] <= 30.5\ngini = 0.198\nsamples = 9\nvalue = [8, 1]"] ;
913 -> 914 ;
915 [label="X[0] <= 195000.0\ngini = 0.5\nsamples = 2\nvalue = [1, 1]"] ;
914 -> 915 ;
916 [label="gini = 0.0\nsamples = 1\nvalue = [1, 0]"] ;
915 -> 916 ;
917 [label="gini = 0.0\nsamples = 1\nvalue = [0, 1]"] ;
915 -> 917 ;
918 [label="gini = 0.0\nsamples = 7\nvalue = [7, 0]"] ;
914 -> 918 ;
919 [label="gini = 0.0\nsamples = 1\nvalue = [0, 1]"] ;
913 -> 919 ;
920 [label="gini = 0.0\nsamples = 5\nvalue = [5, 0]"] ;
898 -> 920 ;
921 [label="X[0] <= 310000.0\ngini = 0.227\nsamples = 23\nvalue = [20, 3]"] ;
897 -> 921 ;
922 [label="X[8] <= -1.5\ngini = 0.095\nsamples = 20\nvalue = [19, 1]"] ;
921 -> 922 ;
923 [label="gini = 0.0\nsamples = 19\nvalue = [19, 0]"] ;
922 -> 923 ;
924 [label="gini = 0.0\nsamples = 1\nvalue = [0, 1]"] ;
922 -> 924 ;
925 [label="X[22] <= 3983.5\ngini = 0.444\nsamples = 3\nvalue = [1, 2]"] ;
921 -> 925 ;
926 [label="gini = 0.0\nsamples = 2\nvalue = [0, 2]"] ;
925 -> 926 ;
927 [label="gini = 0.0\nsamples = 1\nvalue = [1, 0]"] ;
925 -> 927 ;
928 [label="gini = 0.0\nsamples = 10\nvalue = [10, 0]"] ;
896 -> 928 ;
929 [label="gini = 0.0\nsamples = 3\nvalue = [0, 3]"] ;
895 -> 929 ;
930 [label="X[11] <= 321.0\ngini = 0.265\nsamples = 102\nvalue = [86, 16]"] ;
894 -> 930 ;
931 [label="X[4] <= 25.0\ngini = 0.054\nsamples = 36\nvalue = [35, 1]"] ;
930 -> 931 ;
932 [label="X[20] <= 303.5\ngini = 0.5\nsamples = 2\nvalue = [1, 1]"] ;
931 -> 932 ;
933 [label="gini = 0.0\nsamples = 1\nvalue = [1, 0]"] ;
932 -> 933 ;
934 [label="gini = 0.0\nsamples = 1\nvalue = [0, 1]"] ;
932 -> 934 ;
935 [label="gini = 0.0\nsamples = 34\nvalue = [34, 0]"] ;
931 -> 935 ;
936 [label="X[17] <= 377.5\ngini = 0.351\nsamples = 66\nvalue = [51, 15]"] ;
930 -> 936 ;
937 [label="X[22] <= 214.5\ngini = 0.463\nsamples = 22\nvalue = [14, 8]"] ;
936 -> 937 ;
938 [label="gini = 0.0\nsamples = 2\nvalue = [0, 2]"] ;
937 -> 938 ;
939 [label="X[9] <= -0.5\ngini = 0.42\nsamples = 20\nvalue = [14, 6]"] ;
937 -> 939 ;
940 [label="X[4] <= 40.5\ngini = 0.346\nsamples = 18\nvalue = [14, 4]"] ;
939 -> 940 ;
941 [label="X[0] <= 245000.0\ngini = 0.291\nsamples = 17\nvalue = [14, 3]"] ;
940 -> 941 ;
942 [label="X[2] <= 1.5\ngini = 0.231\nsamples = 15\nvalue = [13, 2]"] ;
941 -> 942 ;
943 [label="gini = 0.0\nsamples = 6\nvalue = [6, 0]"] ;
942 -> 943 ;
944 [label="X[0] <= 210000.0\ngini = 0.346\nsamples = 9\nvalue = [7, 2]"] ;
942 -> 944 ;
945 [label="X[2] <= 2.5\ngini = 0.48\nsamples = 5\nvalue = [3, 2]"] ;
944 -> 945 ;
946 [label="X[0] <= 120000.0\ngini = 0.444\nsamples = 3\nvalue = [1, 2]"] ;
945 -> 946 ;
947 [label="gini = 0.0\nsamples = 1\nvalue = [1, 0]"] ;
946 -> 947 ;
948 [label="gini = 0.0\nsamples = 2\nvalue = [0, 2]"] ;
946 -> 948 ;
949 [label="gini = 0.0\nsamples = 2\nvalue = [2, 0]"] ;
945 -> 949 ;
950 [label="gini = 0.0\nsamples = 4\nvalue = [4, 0]"] ;
944 -> 950 ;
951 [label="X[21] <= 223.5\ngini = 0.5\nsamples = 2\nvalue = [1, 1]"] ;
941 -> 951 ;
952 [label="gini = 0.0\nsamples = 1\nvalue = [1, 0]"] ;
951 -> 952 ;
953 [label="gini = 0.0\nsamples = 1\nvalue = [0, 1]"] ;
951 -> 953 ;
954 [label="gini = 0.0\nsamples = 1\nvalue = [0, 1]"] ;
940 -> 954 ;
955 [label="gini = 0.0\nsamples = 2\nvalue = [0, 2]"] ;
939 -> 955 ;
956 [label="X[0] <= 430000.0\ngini = 0.268\nsamples = 44\nvalue = [37, 7]"] ;
936 -> 956 ;
957 [label="X[3] <= 1.5\ngini = 0.24\nsamples = 43\nvalue = [37, 6]"] ;
956 -> 957 ;
958 [label="X[4] <= 45.5\ngini = 0.34\nsamples = 23\nvalue = [18, 5]"] ;
957 -> 958 ;
959 [label="X[0] <= 310000.0\ngini = 0.415\nsamples = 17\nvalue = [12, 5]"] ;
958 -> 959 ;
960 [label="X[0] <= 275000.0\ngini = 0.473\nsamples = 13\nvalue = [8, 5]"] ;
959 -> 960 ;
961 [label="X[0] <= 125000.0\ngini = 0.444\nsamples = 12\nvalue = [8, 4]"] ;
960 -> 961 ;
962 [label="gini = 0.0\nsamples = 2\nvalue = [2, 0]"] ;
961 -> 962 ;
963 [label="X[18] <= 566.0\ngini = 0.48\nsamples = 10\nvalue = [6, 4]"] ;
961 -> 963 ;
964 [label="X[16] <= 190.0\ngini = 0.444\nsamples = 9\nvalue = [6, 3]"] ;
963 -> 964 ;
965 [label="gini = 0.0\nsamples = 1\nvalue = [0, 1]"] ;
964 -> 965 ;
966 [label="X[4] <= 37.5\ngini = 0.375\nsamples = 8\nvalue = [6, 2]"] ;
964 -> 966 ;
967 [label="gini = 0.0\nsamples = 3\nvalue = [3, 0]"] ;
966 -> 967 ;
968 [label="X[19] <= 413.0\ngini = 0.48\nsamples = 5\nvalue = [3, 2]"] ;
966 -> 968 ;
969 [label="X[1] <= 1.5\ngini = 0.5\nsamples = 4\nvalue = [2, 2]"] ;
968 -> 969 ;
970 [label="X[4] <= 42.0\ngini = 0.444\nsamples = 3\nvalue = [2, 1]"] ;
969 -> 970 ;
971 [label="gini = 0.0\nsamples = 2\nvalue = [2, 0]"] ;
970 -> 971 ;
972 [label="gini = 0.0\nsamples = 1\nvalue = [0, 1]"] ;
970 -> 972 ;
973 [label="gini = 0.0\nsamples = 1\nvalue = [0, 1]"] ;
969 -> 973 ;
974 [label="gini = 0.0\nsamples = 1\nvalue = [1, 0]"] ;
968 -> 974 ;
975 [label="gini = 0.0\nsamples = 1\nvalue = [0, 1]"] ;
963 -> 975 ;
976 [label="gini = 0.0\nsamples = 1\nvalue = [0, 1]"] ;
960 -> 976 ;
977 [label="gini = 0.0\nsamples = 4\nvalue = [4, 0]"] ;
959 -> 977 ;
978 [label="gini = 0.0\nsamples = 6\nvalue = [6, 0]"] ;
958 -> 978 ;
979 [label="X[16] <= 397.5\ngini = 0.095\nsamples = 20\nvalue = [19, 1]"] ;
957 -> 979 ;
980 [label="gini = 0.0\nsamples = 15\nvalue = [15, 0]"] ;
979 -> 980 ;
981 [label="X[14] <= 407.5\ngini = 0.32\nsamples = 5\nvalue = [4, 1]"] ;
979 -> 981 ;
982 [label="gini = 0.0\nsamples = 1\nvalue = [0, 1]"] ;
981 -> 982 ;
983 [label="gini = 0.0\nsamples = 4\nvalue = [4, 0]"] ;
981 -> 983 ;
984 [label="gini = 0.0\nsamples = 1\nvalue = [0, 1]"] ;
956 -> 984 ;
985 [label="gini = 0.0\nsamples = 2\nvalue = [0, 2]"] ;
867 -> 985 ;
986 [label="X[0] <= 55000.0\ngini = 0.163\nsamples = 67\nvalue = [61, 6]"] ;
866 -> 986 ;
987 [label="X[4] <= 37.0\ngini = 0.469\nsamples = 8\nvalue = [5, 3]"] ;
986 -> 987 ;
988 [label="gini = 0.0\nsamples = 5\nvalue = [5, 0]"] ;
987 -> 988 ;
989 [label="gini = 0.0\nsamples = 3\nvalue = [0, 3]"] ;
987 -> 989 ;
990 [label="X[13] <= -841.0\ngini = 0.097\nsamples = 59\nvalue = [56, 3]"] ;
986 -> 990 ;
991 [label="X[20] <= 1075.0\ngini = 0.5\nsamples = 2\nvalue = [1, 1]"] ;
990 -> 991 ;
992 [label="gini = 0.0\nsamples = 1\nvalue = [1, 0]"] ;
991 -> 992 ;
993 [label="gini = 0.0\nsamples = 1\nvalue = [0, 1]"] ;
991 -> 993 ;
994 [label="X[22] <= 1184.0\ngini = 0.068\nsamples = 57\nvalue = [55, 2]"] ;
990 -> 994 ;
995 [label="gini = 0.0\nsamples = 37\nvalue = [37, 0]"] ;
994 -> 995 ;
996 [label="X[22] <= 1221.0\ngini = 0.18\nsamples = 20\nvalue = [18, 2]"] ;
994 -> 996 ;
997 [label="gini = 0.0\nsamples = 1\nvalue = [0, 1]"] ;
996 -> 997 ;
998 [label="X[22] <= 2174.5\ngini = 0.1\nsamples = 19\nvalue = [18, 1]"] ;
996 -> 998 ;
999 [label="X[0] <= 290000.0\ngini = 0.375\nsamples = 4\nvalue = [3, 1]"] ;
998 -> 999 ;
1000 [label="gini = 0.0\nsamples = 3\nvalue = [3, 0]"] ;
999 -> 1000 ;
1001 [label="gini = 0.0\nsamples = 1\nvalue = [0, 1]"] ;
999 -> 1001 ;
1002 [label="gini = 0.0\nsamples = 15\nvalue = [15, 0]"] ;
998 -> 1002 ;
1003 [label="X[0] <= 430000.0\ngini = 0.375\nsamples = 4\nvalue = [1, 3]"] ;
865 -> 1003 ;
1004 [label="gini = 0.0\nsamples = 3\nvalue = [0, 3]"] ;
1003 -> 1004 ;
1005 [label="gini = 0.0\nsamples = 1\nvalue = [1, 0]"] ;
1003 -> 1005 ;
1006 [label="X[17] <= 2821.5\ngini = 0.481\nsamples = 57\nvalue = [34, 23]"] ;
864 -> 1006 ;
1007 [label="X[19] <= 383.0\ngini = 0.497\nsamples = 41\nvalue = [19, 22]"] ;
1006 -> 1007 ;
1008 [label="X[2] <= 3.5\ngini = 0.413\nsamples = 24\nvalue = [7, 17]"] ;
1007 -> 1008 ;
1009 [label="X[20] <= 393.0\ngini = 0.351\nsamples = 22\nvalue = [5, 17]"] ;
1008 -> 1009 ;
1010 [label="X[0] <= 40000.0\ngini = 0.198\nsamples = 18\nvalue = [2, 16]"] ;
1009 -> 1010 ;
1011 [label="gini = 0.0\nsamples = 1\nvalue = [1, 0]"] ;
1010 -> 1011 ;
1012 [label="X[10] <= -1.5\ngini = 0.111\nsamples = 17\nvalue = [1, 16]"] ;
1010 -> 1012 ;
1013 [label="X[5] <= 0.0\ngini = 0.444\nsamples = 3\nvalue = [1, 2]"] ;
1012 -> 1013 ;
1014 [label="gini = 0.0\nsamples = 1\nvalue = [1, 0]"] ;
1013 -> 1014 ;
1015 [label="gini = 0.0\nsamples = 2\nvalue = [0, 2]"] ;
1013 -> 1015 ;
1016 [label="gini = 0.0\nsamples = 14\nvalue = [0, 14]"] ;
1012 -> 1016 ;
1017 [label="X[0] <= 215000.0\ngini = 0.375\nsamples = 4\nvalue = [3, 1]"] ;
1009 -> 1017 ;
1018 [label="gini = 0.0\nsamples = 3\nvalue = [3, 0]"] ;
1017 -> 1018 ;
1019 [label="gini = 0.0\nsamples = 1\nvalue = [0, 1]"] ;
1017 -> 1019 ;
1020 [label="gini = 0.0\nsamples = 2\nvalue = [2, 0]"] ;
1008 -> 1020 ;
1021 [label="X[22] <= 358.0\ngini = 0.415\nsamples = 17\nvalue = [12, 5]"] ;
1007 -> 1021 ;
1022 [label="gini = 0.0\nsamples = 2\nvalue = [0, 2]"] ;
1021 -> 1022 ;
1023 [label="X[14] <= 746.0\ngini = 0.32\nsamples = 15\nvalue = [12, 3]"] ;
1021 -> 1023 ;
1024 [label="X[6] <= -0.5\ngini = 0.153\nsamples = 12\nvalue = [11, 1]"] ;
1023 -> 1024 ;
1025 [label="gini = 0.0\nsamples = 11\nvalue = [11, 0]"] ;
1024 -> 1025 ;
1026 [label="gini = 0.0\nsamples = 1\nvalue = [0, 1]"] ;
1024 -> 1026 ;
1027 [label="X[9] <= -0.5\ngini = 0.444\nsamples = 3\nvalue = [1, 2]"] ;
1023 -> 1027 ;
1028 [label="gini = 0.0\nsamples = 2\nvalue = [0, 2]"] ;
1027 -> 1028 ;
1029 [label="gini = 0.0\nsamples = 1\nvalue = [1, 0]"] ;
1027 -> 1029 ;
1030 [label="X[16] <= 20276.0\ngini = 0.117\nsamples = 16\nvalue = [15, 1]"] ;
1006 -> 1030 ;
1031 [label="gini = 0.0\nsamples = 15\nvalue = [15, 0]"] ;
1030 -> 1031 ;
1032 [label="gini = 0.0\nsamples = 1\nvalue = [0, 1]"] ;
1030 -> 1032 ;
1033 [label="X[16] <= 388.5\ngini = 0.489\nsamples = 68\nvalue = [39, 29]"] ;
861 -> 1033 ;
1034 [label="X[17] <= 1720.5\ngini = 0.308\nsamples = 21\nvalue = [17, 4]"] ;
1033 -> 1034 ;
1035 [label="X[15] <= 573.5\ngini = 0.255\nsamples = 20\nvalue = [17, 3]"] ;
1034 -> 1035 ;
1036 [label="X[4] <= 32.5\ngini = 0.48\nsamples = 5\nvalue = [3, 2]"] ;
1035 -> 1036 ;
1037 [label="gini = 0.0\nsamples = 3\nvalue = [3, 0]"] ;
1036 -> 1037 ;
1038 [label="gini = 0.0\nsamples = 2\nvalue = [0, 2]"] ;
1036 -> 1038 ;
1039 [label="X[0] <= 205000.0\ngini = 0.124\nsamples = 15\nvalue = [14, 1]"] ;
1035 -> 1039 ;
1040 [label="gini = 0.0\nsamples = 11\nvalue = [11, 0]"] ;
1039 -> 1040 ;
1041 [label="X[3] <= 1.5\ngini = 0.375\nsamples = 4\nvalue = [3, 1]"] ;
1039 -> 1041 ;
1042 [label="gini = 0.0\nsamples = 1\nvalue = [0, 1]"] ;
1041 -> 1042 ;
1043 [label="gini = 0.0\nsamples = 3\nvalue = [3, 0]"] ;
1041 -> 1043 ;
1044 [label="gini = 0.0\nsamples = 1\nvalue = [0, 1]"] ;
1034 -> 1044 ;
1045 [label="X[16] <= 1292.0\ngini = 0.498\nsamples = 47\nvalue = [22, 25]"] ;
1033 -> 1045 ;
1046 [label="X[17] <= 338.0\ngini = 0.461\nsamples = 36\nvalue = [13, 23]"] ;
1045 -> 1046 ;
1047 [label="X[19] <= 709.5\ngini = 0.245\nsamples = 14\nvalue = [2, 12]"] ;
1046 -> 1047 ;
1048 [label="X[15] <= 906.0\ngini = 0.142\nsamples = 13\nvalue = [1, 12]"] ;
1047 -> 1048 ;
1049 [label="gini = 0.0\nsamples = 12\nvalue = [0, 12]"] ;
1048 -> 1049 ;
1050 [label="gini = 0.0\nsamples = 1\nvalue = [1, 0]"] ;
1048 -> 1050 ;
1051 [label="gini = 0.0\nsamples = 1\nvalue = [1, 0]"] ;
1047 -> 1051 ;
1052 [label="X[22] <= 899.5\ngini = 0.5\nsamples = 22\nvalue = [11, 11]"] ;
1046 -> 1052 ;
1053 [label="X[18] <= 180.0\ngini = 0.475\nsamples = 18\nvalue = [7, 11]"] ;
1052 -> 1053 ;
1054 [label="gini = 0.0\nsamples = 2\nvalue = [2, 0]"] ;
1053 -> 1054 ;
1055 [label="X[20] <= 525.0\ngini = 0.43\nsamples = 16\nvalue = [5, 11]"] ;
1053 -> 1055 ;
1056 [label="X[1] <= 1.5\ngini = 0.48\nsamples = 5\nvalue = [3, 2]"] ;
1055 -> 1056 ;
1057 [label="gini = 0.0\nsamples = 2\nvalue = [0, 2]"] ;
1056 -> 1057 ;
1058 [label="gini = 0.0\nsamples = 3\nvalue = [3, 0]"] ;
1056 -> 1058 ;
1059 [label="X[2] <= 2.5\ngini = 0.298\nsamples = 11\nvalue = [2, 9]"] ;
1055 -> 1059 ;
1060 [label="X[20] <= 1050.0\ngini = 0.18\nsamples = 10\nvalue = [1, 9]"] ;
1059 -> 1060 ;
1061 [label="gini = 0.0\nsamples = 9\nvalue = [0, 9]"] ;
1060 -> 1061 ;
1062 [label="gini = 0.0\nsamples = 1\nvalue = [1, 0]"] ;
1060 -> 1062 ;
1063 [label="gini = 0.0\nsamples = 1\nvalue = [1, 0]"] ;
1059 -> 1063 ;
1064 [label="gini = 0.0\nsamples = 4\nvalue = [4, 0]"] ;
1052 -> 1064 ;
1065 [label="X[0] <= 130000.0\ngini = 0.298\nsamples = 11\nvalue = [9, 2]"] ;
1045 -> 1065 ;
1066 [label="gini = 0.0\nsamples = 1\nvalue = [0, 1]"] ;
1065 -> 1066 ;
1067 [label="X[13] <= 1096.0\ngini = 0.18\nsamples = 10\nvalue = [9, 1]"] ;
1065 -> 1067 ;
1068 [label="gini = 0.0\nsamples = 8\nvalue = [8, 0]"] ;
1067 -> 1068 ;
1069 [label="X[0] <= 255000.0\ngini = 0.5\nsamples = 2\nvalue = [1, 1]"] ;
1067 -> 1069 ;
1070 [label="gini = 0.0\nsamples = 1\nvalue = [1, 0]"] ;
1069 -> 1070 ;
1071 [label="gini = 0.0\nsamples = 1\nvalue = [0, 1]"] ;
1069 -> 1071 ;
1072 [label="X[11] <= 508.5\ngini = 0.13\nsamples = 172\nvalue = [160, 12]"] ;
826 -> 1072 ;
1073 [label="X[16] <= -278.0\ngini = 0.12\nsamples = 171\nvalue = [160, 11]"] ;
1072 -> 1073 ;
1074 [label="gini = 0.0\nsamples = 1\nvalue = [0, 1]"] ;
1073 -> 1074 ;
1075 [label="X[21] <= 2377.5\ngini = 0.111\nsamples = 170\nvalue = [160, 10]"] ;
1073 -> 1075 ;
1076 [label="X[0] <= 435000.0\ngini = 0.035\nsamples = 111\nvalue = [109, 2]"] ;
1075 -> 1076 ;
1077 [label="X[4] <= 25.5\ngini = 0.019\nsamples = 105\nvalue = [104, 1]"] ;
1076 -> 1077 ;
1078 [label="X[16] <= 241.5\ngini = 0.153\nsamples = 12\nvalue = [11, 1]"] ;
1077 -> 1078 ;
1079 [label="X[13] <= 200.5\ngini = 0.5\nsamples = 2\nvalue = [1, 1]"] ;
1078 -> 1079 ;
1080 [label="gini = 0.0\nsamples = 1\nvalue = [1, 0]"] ;
1079 -> 1080 ;
1081 [label="gini = 0.0\nsamples = 1\nvalue = [0, 1]"] ;
1079 -> 1081 ;
1082 [label="gini = 0.0\nsamples = 10\nvalue = [10, 0]"] ;
1078 -> 1082 ;
1083 [label="gini = 0.0\nsamples = 93\nvalue = [93, 0]"] ;
1077 -> 1083 ;
1084 [label="X[0] <= 445000.0\ngini = 0.278\nsamples = 6\nvalue = [5, 1]"] ;
1076 -> 1084 ;
1085 [label="gini = 0.0\nsamples = 1\nvalue = [0, 1]"] ;
1084 -> 1085 ;
1086 [label="gini = 0.0\nsamples = 5\nvalue = [5, 0]"] ;
1084 -> 1086 ;
1087 [label="X[22] <= 769.0\ngini = 0.234\nsamples = 59\nvalue = [51, 8]"] ;
1075 -> 1087 ;
1088 [label="X[22] <= 194.0\ngini = 0.48\nsamples = 10\nvalue = [6, 4]"] ;
1087 -> 1088 ;
1089 [label="gini = 0.0\nsamples = 4\nvalue = [4, 0]"] ;
1088 -> 1089 ;
1090 [label="X[14] <= 588.5\ngini = 0.444\nsamples = 6\nvalue = [2, 4]"] ;
1088 -> 1090 ;
1091 [label="gini = 0.0\nsamples = 3\nvalue = [0, 3]"] ;
1090 -> 1091 ;
1092 [label="X[22] <= 470.0\ngini = 0.444\nsamples = 3\nvalue = [2, 1]"] ;
1090 -> 1092 ;
1093 [label="gini = 0.0\nsamples = 2\nvalue = [2, 0]"] ;
1092 -> 1093 ;
1094 [label="gini = 0.0\nsamples = 1\nvalue = [0, 1]"] ;
1092 -> 1094 ;
1095 [label="X[11] <= -260.5\ngini = 0.15\nsamples = 49\nvalue = [45, 4]"] ;
1087 -> 1095 ;
1096 [label="gini = 0.0\nsamples = 1\nvalue = [0, 1]"] ;
1095 -> 1096 ;
1097 [label="X[4] <= 40.5\ngini = 0.117\nsamples = 48\nvalue = [45, 3]"] ;
1095 -> 1097 ;
1098 [label="X[22] <= 44650.0\ngini = 0.05\nsamples = 39\nvalue = [38, 1]"] ;
1097 -> 1098 ;
1099 [label="gini = 0.0\nsamples = 35\nvalue = [35, 0]"] ;
1098 -> 1099 ;
1100 [label="X[22] <= 63356.0\ngini = 0.375\nsamples = 4\nvalue = [3, 1]"] ;
1098 -> 1100 ;
1101 [label="gini = 0.0\nsamples = 1\nvalue = [0, 1]"] ;
1100 -> 1101 ;
1102 [label="gini = 0.0\nsamples = 3\nvalue = [3, 0]"] ;
1100 -> 1102 ;
1103 [label="X[13] <= 198.0\ngini = 0.346\nsamples = 9\nvalue = [7, 2]"] ;
1097 -> 1103 ;
1104 [label="gini = 0.0\nsamples = 2\nvalue = [0, 2]"] ;
1103 -> 1104 ;
1105 [label="gini = 0.0\nsamples = 7\nvalue = [7, 0]"] ;
1103 -> 1105 ;
1106 [label="gini = 0.0\nsamples = 1\nvalue = [0, 1]"] ;
1072 -> 1106 ;
1107 [label="X[22] <= 354.0\ngini = 0.499\nsamples = 44\nvalue = [23, 21]"] ;
825 -> 1107 ;
1108 [label="gini = 0.0\nsamples = 6\nvalue = [6, 0]"] ;
1107 -> 1108 ;
1109 [label="X[21] <= 1350.0\ngini = 0.494\nsamples = 38\nvalue = [17, 21]"] ;
1107 -> 1109 ;
1110 [label="X[11] <= -713.5\ngini = 0.375\nsamples = 20\nvalue = [5, 15]"] ;
1109 -> 1110 ;
1111 [label="gini = 0.0\nsamples = 2\nvalue = [2, 0]"] ;
1110 -> 1111 ;
1112 [label="X[14] <= 393.0\ngini = 0.278\nsamples = 18\nvalue = [3, 15]"] ;
1110 -> 1112 ;
1113 [label="X[12] <= 102.0\ngini = 0.5\nsamples = 6\nvalue = [3, 3]"] ;
1112 -> 1113 ;
1114 [label="gini = 0.0\nsamples = 2\nvalue = [0, 2]"] ;
1113 -> 1114 ;
1115 [label="X[21] <= 205.0\ngini = 0.375\nsamples = 4\nvalue = [3, 1]"] ;
1113 -> 1115 ;
1116 [label="gini = 0.0\nsamples = 3\nvalue = [3, 0]"] ;
1115 -> 1116 ;
1117 [label="gini = 0.0\nsamples = 1\nvalue = [0, 1]"] ;
1115 -> 1117 ;
1118 [label="gini = 0.0\nsamples = 12\nvalue = [0, 12]"] ;
1112 -> 1118 ;
1119 [label="X[20] <= 300.0\ngini = 0.444\nsamples = 18\nvalue = [12, 6]"] ;
1109 -> 1119 ;
1120 [label="gini = 0.0\nsamples = 2\nvalue = [0, 2]"] ;
1119 -> 1120 ;
1121 [label="X[0] <= 40000.0\ngini = 0.375\nsamples = 16\nvalue = [12, 4]"] ;
1119 -> 1121 ;
1122 [label="X[12] <= 1235.5\ngini = 0.444\nsamples = 3\nvalue = [1, 2]"] ;
1121 -> 1122 ;
1123 [label="gini = 0.0\nsamples = 2\nvalue = [0, 2]"] ;
1122 -> 1123 ;
1124 [label="gini = 0.0\nsamples = 1\nvalue = [1, 0]"] ;
1122 -> 1124 ;
1125 [label="X[13] <= 199.0\ngini = 0.26\nsamples = 13\nvalue = [11, 2]"] ;
1121 -> 1125 ;
1126 [label="gini = 0.0\nsamples = 1\nvalue = [0, 1]"] ;
1125 -> 1126 ;
1127 [label="X[4] <= 47.0\ngini = 0.153\nsamples = 12\nvalue = [11, 1]"] ;
1125 -> 1127 ;
1128 [label="gini = 0.0\nsamples = 10\nvalue = [10, 0]"] ;
1127 -> 1128 ;
1129 [label="X[15] <= 10947.5\ngini = 0.5\nsamples = 2\nvalue = [1, 1]"] ;
1127 -> 1129 ;
1130 [label="gini = 0.0\nsamples = 1\nvalue = [0, 1]"] ;
1129 -> 1130 ;
1131 [label="gini = 0.0\nsamples = 1\nvalue = [1, 0]"] ;
1129 -> 1131 ;
1132 [label="X[5] <= 0.0\ngini = 0.493\nsamples = 152\nvalue = [85, 67]"] ;
4 -> 1132 ;
1133 [label="X[22] <= 490.0\ngini = 0.43\nsamples = 83\nvalue = [57, 26]"] ;
1132 -> 1133 ;
1134 [label="X[2] <= 2.5\ngini = 0.479\nsamples = 63\nvalue = [38, 25]"] ;
1133 -> 1134 ;
1135 [label="X[21] <= 363.0\ngini = 0.405\nsamples = 39\nvalue = [28, 11]"] ;
1134 -> 1135 ;
1136 [label="X[2] <= 1.5\ngini = 0.227\nsamples = 23\nvalue = [20, 3]"] ;
1135 -> 1136 ;
1137 [label="X[8] <= 0.5\ngini = 0.355\nsamples = 13\nvalue = [10, 3]"] ;
1136 -> 1137 ;
1138 [label="X[15] <= 132.0\ngini = 0.278\nsamples = 12\nvalue = [10, 2]"] ;
1137 -> 1138 ;
1139 [label="X[0] <= 210000.0\ngini = 0.444\nsamples = 6\nvalue = [4, 2]"] ;
1138 -> 1139 ;
1140 [label="gini = 0.0\nsamples = 2\nvalue = [0, 2]"] ;
1139 -> 1140 ;
1141 [label="gini = 0.0\nsamples = 4\nvalue = [4, 0]"] ;
1139 -> 1141 ;
1142 [label="gini = 0.0\nsamples = 6\nvalue = [6, 0]"] ;
1138 -> 1142 ;
1143 [label="gini = 0.0\nsamples = 1\nvalue = [0, 1]"] ;
1137 -> 1143 ;
1144 [label="gini = 0.0\nsamples = 10\nvalue = [10, 0]"] ;
1136 -> 1144 ;
1145 [label="X[18] <= 393.5\ngini = 0.5\nsamples = 16\nvalue = [8, 8]"] ;
1135 -> 1145 ;
1146 [label="X[10] <= -1.5\ngini = 0.397\nsamples = 11\nvalue = [3, 8]"] ;
1145 -> 1146 ;
1147 [label="X[11] <= 218.5\ngini = 0.375\nsamples = 4\nvalue = [3, 1]"] ;
1146 -> 1147 ;
1148 [label="gini = 0.0\nsamples = 3\nvalue = [3, 0]"] ;
1147 -> 1148 ;
1149 [label="gini = 0.0\nsamples = 1\nvalue = [0, 1]"] ;
1147 -> 1149 ;
1150 [label="gini = 0.0\nsamples = 7\nvalue = [0, 7]"] ;
1146 -> 1150 ;
1151 [label="gini = 0.0\nsamples = 5\nvalue = [5, 0]"] ;
1145 -> 1151 ;
1152 [label="X[1] <= 1.5\ngini = 0.486\nsamples = 24\nvalue = [10, 14]"] ;
1134 -> 1152 ;
1153 [label="X[0] <= 230000.0\ngini = 0.397\nsamples = 11\nvalue = [8, 3]"] ;
1152 -> 1153 ;
1154 [label="X[21] <= 952.5\ngini = 0.198\nsamples = 9\nvalue = [8, 1]"] ;
1153 -> 1154 ;
1155 [label="gini = 0.0\nsamples = 8\nvalue = [8, 0]"] ;
1154 -> 1155 ;
1156 [label="gini = 0.0\nsamples = 1\nvalue = [0, 1]"] ;
1154 -> 1156 ;
1157 [label="gini = 0.0\nsamples = 2\nvalue = [0, 2]"] ;
1153 -> 1157 ;
1158 [label="X[3] <= 0.5\ngini = 0.26\nsamples = 13\nvalue = [2, 11]"] ;
1152 -> 1158 ;
1159 [label="gini = 0.0\nsamples = 1\nvalue = [1, 0]"] ;
1158 -> 1159 ;
1160 [label="X[0] <= 85000.0\ngini = 0.153\nsamples = 12\nvalue = [1, 11]"] ;
1158 -> 1160 ;
1161 [label="X[11] <= 173.5\ngini = 0.5\nsamples = 2\nvalue = [1, 1]"] ;
1160 -> 1161 ;
1162 [label="gini = 0.0\nsamples = 1\nvalue = [1, 0]"] ;
1161 -> 1162 ;
1163 [label="gini = 0.0\nsamples = 1\nvalue = [0, 1]"] ;
1161 -> 1163 ;
1164 [label="gini = 0.0\nsamples = 10\nvalue = [0, 10]"] ;
1160 -> 1164 ;
1165 [label="X[4] <= 62.5\ngini = 0.095\nsamples = 20\nvalue = [19, 1]"] ;
1133 -> 1165 ;
1166 [label="gini = 0.0\nsamples = 18\nvalue = [18, 0]"] ;
1165 -> 1166 ;
1167 [label="X[12] <= 94.0\ngini = 0.5\nsamples = 2\nvalue = [1, 1]"] ;
1165 -> 1167 ;
1168 [label="gini = 0.0\nsamples = 1\nvalue = [0, 1]"] ;
1167 -> 1168 ;
1169 [label="gini = 0.0\nsamples = 1\nvalue = [1, 0]"] ;
1167 -> 1169 ;
1170 [label="X[15] <= 3895.0\ngini = 0.482\nsamples = 69\nvalue = [28, 41]"] ;
1132 -> 1170 ;
1171 [label="X[11] <= -303.0\ngini = 0.451\nsamples = 61\nvalue = [21, 40]"] ;
1170 -> 1171 ;
1172 [label="gini = 0.0\nsamples = 3\nvalue = [3, 0]"] ;
1171 -> 1172 ;
1173 [label="X[17] <= 3423.5\ngini = 0.428\nsamples = 58\nvalue = [18, 40]"] ;
1171 -> 1173 ;
1174 [label="X[4] <= 62.5\ngini = 0.408\nsamples = 56\nvalue = [16, 40]"] ;
1173 -> 1174 ;
1175 [label="X[4] <= 61.5\ngini = 0.444\nsamples = 48\nvalue = [16, 32]"] ;
1174 -> 1175 ;
1176 [label="X[3] <= 1.5\ngini = 0.423\nsamples = 46\nvalue = [14, 32]"] ;
1175 -> 1176 ;
1177 [label="X[17] <= 83.0\ngini = 0.455\nsamples = 40\nvalue = [14, 26]"] ;
1176 -> 1177 ;
1178 [label="X[8] <= -1.5\ngini = 0.491\nsamples = 30\nvalue = [13, 17]"] ;
1177 -> 1178 ;
1179 [label="X[22] <= 126.5\ngini = 0.453\nsamples = 26\nvalue = [9, 17]"] ;
1178 -> 1179 ;
1180 [label="X[1] <= 1.5\ngini = 0.413\nsamples = 24\nvalue = [7, 17]"] ;
1179 -> 1180 ;
1181 [label="gini = 0.0\nsamples = 6\nvalue = [0, 6]"] ;
1180 -> 1181 ;
1182 [label="X[0] <= 295000.0\ngini = 0.475\nsamples = 18\nvalue = [7, 11]"] ;
1180 -> 1182 ;
1183 [label="X[2] <= 2.5\ngini = 0.5\nsamples = 14\nvalue = [7, 7]"] ;
1182 -> 1183 ;
1184 [label="X[4] <= 57.5\ngini = 0.278\nsamples = 6\nvalue = [5, 1]"] ;
1183 -> 1184 ;
1185 [label="gini = 0.0\nsamples = 3\nvalue = [3, 0]"] ;
1184 -> 1185 ;
1186 [label="X[0] <= 115000.0\ngini = 0.444\nsamples = 3\nvalue = [2, 1]"] ;
1184 -> 1186 ;
1187 [label="gini = 0.0\nsamples = 1\nvalue = [1, 0]"] ;
1186 -> 1187 ;
1188 [label="X[0] <= 245000.0\ngini = 0.5\nsamples = 2\nvalue = [1, 1]"] ;
1186 -> 1188 ;
1189 [label="gini = 0.0\nsamples = 1\nvalue = [0, 1]"] ;
1188 -> 1189 ;
1190 [label="gini = 0.0\nsamples = 1\nvalue = [1, 0]"] ;
1188 -> 1190 ;
1191 [label="X[10] <= -1.5\ngini = 0.375\nsamples = 8\nvalue = [2, 6]"] ;
1183 -> 1191 ;
1192 [label="X[4] <= 53.5\ngini = 0.245\nsamples = 7\nvalue = [1, 6]"] ;
1191 -> 1192 ;
1193 [label="X[0] <= 75000.0\ngini = 0.444\nsamples = 3\nvalue = [1, 2]"] ;
1192 -> 1193 ;
1194 [label="gini = 0.0\nsamples = 1\nvalue = [0, 1]"] ;
1193 -> 1194 ;
1195 [label="gini = 0.5\nsamples = 2\nvalue = [1, 1]"] ;
1193 -> 1195 ;
1196 [label="gini = 0.0\nsamples = 4\nvalue = [0, 4]"] ;
1192 -> 1196 ;
1197 [label="gini = 0.0\nsamples = 1\nvalue = [1, 0]"] ;
1191 -> 1197 ;
1198 [label="gini = 0.0\nsamples = 4\nvalue = [0, 4]"] ;
1182 -> 1198 ;
1199 [label="gini = 0.0\nsamples = 2\nvalue = [2, 0]"] ;
1179 -> 1199 ;
1200 [label="gini = 0.0\nsamples = 4\nvalue = [4, 0]"] ;
1178 -> 1200 ;
1201 [label="X[17] <= 2320.0\ngini = 0.18\nsamples = 10\nvalue = [1, 9]"] ;
1177 -> 1201 ;
1202 [label="gini = 0.0\nsamples = 7\nvalue = [0, 7]"] ;
1201 -> 1202 ;
1203 [label="X[0] <= 140000.0\ngini = 0.444\nsamples = 3\nvalue = [1, 2]"] ;
1201 -> 1203 ;
1204 [label="gini = 0.0\nsamples = 1\nvalue = [1, 0]"] ;
1203 -> 1204 ;
1205 [label="gini = 0.0\nsamples = 2\nvalue = [0, 2]"] ;
1203 -> 1205 ;
1206 [label="gini = 0.0\nsamples = 6\nvalue = [0, 6]"] ;
1176 -> 1206 ;
1207 [label="gini = 0.0\nsamples = 2\nvalue = [2, 0]"] ;
1175 -> 1207 ;
1208 [label="gini = 0.0\nsamples = 8\nvalue = [0, 8]"] ;
1174 -> 1208 ;
1209 [label="gini = 0.0\nsamples = 2\nvalue = [2, 0]"] ;
1173 -> 1209 ;
1210 [label="X[18] <= 21795.5\ngini = 0.219\nsamples = 8\nvalue = [7, 1]"] ;
1170 -> 1210 ;
1211 [label="gini = 0.0\nsamples = 7\nvalue = [7, 0]"] ;
1210 -> 1211 ;
1212 [label="gini = 0.0\nsamples = 1\nvalue = [0, 1]"] ;
1210 -> 1212 ;
1213 [label="X[8] <= 1.0\ngini = 0.292\nsamples = 3611\nvalue = [2970, 641]"] ;
3 -> 1213 ;
1214 [label="X[7] <= 1.5\ngini = 0.268\nsamples = 3009\nvalue = [2530, 479]"] ;
1213 -> 1214 ;
1215 [label="X[18] <= 2380.0\ngini = 0.259\nsamples = 2911\nvalue = [2465, 446]"] ;
1214 -> 1215 ;
1216 [label="X[0] <= 185000.0\ngini = 0.278\nsamples = 2248\nvalue = [1873, 375]"] ;
1215 -> 1216 ;
1217 [label="X[11] <= 13535.0\ngini = 0.303\nsamples = 1545\nvalue = [1257, 288]"] ;
1216 -> 1217 ;
1218 [label="X[21] <= 781.5\ngini = 0.347\nsamples = 775\nvalue = [602, 173]"] ;
1217 -> 1218 ;
1219 [label="X[21] <= 703.5\ngini = 0.375\nsamples = 581\nvalue = [436, 145]"] ;
1218 -> 1219 ;
1220 [label="X[20] <= 2515.0\ngini = 0.363\nsamples = 559\nvalue = [426, 133]"] ;
1219 -> 1220 ;
1221 [label="X[11] <= 13391.0\ngini = 0.376\nsamples = 521\nvalue = [390, 131]"] ;
1220 -> 1221 ;
1222 [label="X[22] <= 266.0\ngini = 0.374\nsamples = 519\nvalue = [390, 129]"] ;
1221 -> 1222 ;
1223 [label="X[15] <= 12058.0\ngini = 0.335\nsamples = 306\nvalue = [241, 65]"] ;
1222 -> 1223 ;
1224 [label="X[6] <= -1.5\ngini = 0.329\nsamples = 304\nvalue = [241, 63]"] ;
1223 -> 1224 ;
1225 [label="X[2] <= 5.0\ngini = 0.171\nsamples = 53\nvalue = [48, 5]"] ;
1224 -> 1225 ;
1226 [label="X[4] <= 27.5\ngini = 0.142\nsamples = 52\nvalue = [48, 4]"] ;
1225 -> 1226 ;
1227 [label="X[11] <= 2621.0\ngini = 0.375\nsamples = 12\nvalue = [9, 3]"] ;
1226 -> 1227 ;
1228 [label="gini = 0.0\nsamples = 7\nvalue = [7, 0]"] ;
1227 -> 1228 ;
1229 [label="X[0] <= 140000.0\ngini = 0.48\nsamples = 5\nvalue = [2, 3]"] ;
1227 -> 1229 ;
1230 [label="gini = 0.0\nsamples = 2\nvalue = [2, 0]"] ;
1229 -> 1230 ;
1231 [label="gini = 0.0\nsamples = 3\nvalue = [0, 3]"] ;
1229 -> 1231 ;
1232 [label="X[4] <= 34.5\ngini = 0.049\nsamples = 40\nvalue = [39, 1]"] ;
1226 -> 1232 ;
1233 [label="X[4] <= 33.5\ngini = 0.133\nsamples = 14\nvalue = [13, 1]"] ;
1232 -> 1233 ;
1234 [label="gini = 0.0\nsamples = 13\nvalue = [13, 0]"] ;
1233 -> 1234 ;
1235 [label="gini = 0.0\nsamples = 1\nvalue = [0, 1]"] ;
1233 -> 1235 ;
1236 [label="gini = 0.0\nsamples = 26\nvalue = [26, 0]"] ;
1232 -> 1236 ;
1237 [label="gini = 0.0\nsamples = 1\nvalue = [0, 1]"] ;
1225 -> 1237 ;
1238 [label="X[5] <= 0.5\ngini = 0.355\nsamples = 251\nvalue = [193, 58]"] ;
1224 -> 1238 ;
1239 [label="X[14] <= 1355.0\ngini = 0.349\nsamples = 249\nvalue = [193, 56]"] ;
1238 -> 1239 ;
1240 [label="X[14] <= 1166.5\ngini = 0.377\nsamples = 206\nvalue = [154, 52]"] ;
1239 -> 1240 ;
1241 [label="X[0] <= 15000.0\ngini = 0.37\nsamples = 204\nvalue = [154, 50]"] ;
1240 -> 1241 ;
1242 [label="X[4] <= 37.0\ngini = 0.49\nsamples = 7\nvalue = [3, 4]"] ;
1241 -> 1242 ;
1243 [label="X[20] <= 300.0\ngini = 0.32\nsamples = 5\nvalue = [1, 4]"] ;
1242 -> 1243 ;
1244 [label="gini = 0.0\nsamples = 4\nvalue = [0, 4]"] ;
1243 -> 1244 ;
1245 [label="gini = 0.0\nsamples = 1\nvalue = [1, 0]"] ;
1243 -> 1245 ;
1246 [label="gini = 0.0\nsamples = 2\nvalue = [2, 0]"] ;
1242 -> 1246 ;
1247 [label="X[11] <= 12424.5\ngini = 0.358\nsamples = 197\nvalue = [151, 46]"] ;
1241 -> 1247 ;
1248 [label="X[4] <= 62.0\ngini = 0.348\nsamples = 192\nvalue = [149, 43]"] ;
1247 -> 1248 ;
1249 [label="X[9] <= 1.0\ngini = 0.343\nsamples = 191\nvalue = [149, 42]"] ;
1248 -> 1249 ;
1250 [label="X[16] <= 405.5\ngini = 0.338\nsamples = 190\nvalue = [149, 41]"] ;
1249 -> 1250 ;
1251 [label="X[16] <= 383.5\ngini = 0.355\nsamples = 178\nvalue = [137, 41]"] ;
1250 -> 1251 ;
1252 [label="X[4] <= 51.5\ngini = 0.345\nsamples = 176\nvalue = [137, 39]"] ;
1251 -> 1252 ;
1253 [label="X[4] <= 49.5\ngini = 0.359\nsamples = 166\nvalue = [127, 39]"] ;
1252 -> 1253 ;
1254 [label="X[11] <= 809.5\ngini = 0.347\nsamples = 161\nvalue = [125, 36]"] ;
1253 -> 1254 ;
1255 [label="X[14] <= 443.5\ngini = 0.105\nsamples = 18\nvalue = [17, 1]"] ;
1254 -> 1255 ;
1256 [label="gini = 0.0\nsamples = 17\nvalue = [17, 0]"] ;
1255 -> 1256 ;
1257 [label="gini = 0.0\nsamples = 1\nvalue = [0, 1]"] ;
1255 -> 1257 ;
1258 [label="X[11] <= 8622.0\ngini = 0.37\nsamples = 143\nvalue = [108, 35]"] ;
1254 -> 1258 ;
1259 [label="X[11] <= 8488.0\ngini = 0.396\nsamples = 125\nvalue = [91, 34]"] ;
1258 -> 1259 ;
1260 [label="X[15] <= 248.0\ngini = 0.385\nsamples = 123\nvalue = [91, 32]"] ;
1259 -> 1260 ;
1261 [label="X[9] <= -0.5\ngini = 0.364\nsamples = 113\nvalue = [86, 27]"] ;
1260 -> 1261 ;
1262 [label="X[5] <= -0.5\ngini = 0.357\nsamples = 112\nvalue = [86, 26]"] ;
1261 -> 1262 ;
1263 [label="X[11] <= 7264.5\ngini = 0.398\nsamples = 73\nvalue = [53, 20]"] ;
1262 -> 1263 ;
1264 [label="X[0] <= 155000.0\ngini = 0.378\nsamples = 71\nvalue = [53, 18]"] ;
